<?xml version="1.0"?>
<opencv_storage>
<HOGboats type_id="opencv-object-detector-hog">
  <winSize>
    128 88</winSize>
  <blockSize>
    16 16</blockSize>
  <blockStride>
    8 8</blockStride>
  <cellSize>
    8 8</cellSize>
  <nbins>9</nbins>
  <derivAperture>1</derivAperture>
  <winSigma>4.</winSigma>
  <histogramNormType>0</histogramNormType>
  <L2HysThreshold>2.0000000000000001e-01</L2HysThreshold>
  <gammaCorrection>1</gammaCorrection>
  <nlevels>64</nlevels>
  <signedGradient>0</signedGradient>
  <SVMDetector>
    -5.32019287e-02 -3.81274298e-02 -3.10866106e-02 -4.22966555e-02
    -2.40432397e-02 -1.72738079e-02 2.94089708e-02 1.35452934e-02
    -4.19420972e-02 -3.33228963e-03 6.00793026e-03 -2.59156395e-02
    -4.32450846e-02 -8.66576564e-03 -3.40359323e-02 -1.90066900e-02
    2.11366098e-02 -2.06112787e-02 -3.79893780e-02 4.01407527e-03
    1.73345916e-02 -1.80272816e-03 1.14697311e-02 -1.08679235e-02
    -1.57151464e-02 -3.66103044e-03 -7.54790939e-03 1.66107289e-04
    3.26724313e-02 -9.68902663e-04 -1.25612004e-03 2.92049740e-02
    5.86217595e-03 -3.36655695e-03 4.62142564e-02 3.07582989e-02
    7.58545939e-03 7.99505878e-03 -2.68944744e-02 -4.47201803e-02
    -1.66145824e-02 -5.35608344e-02 -1.12341736e-02 2.61549167e-02
    -5.41067217e-03 1.33981938e-02 2.97588333e-02 -7.98453751e-04
    -2.76910644e-02 2.68712547e-02 -5.17556705e-02 -3.74476984e-02
    2.41625751e-03 -1.24805262e-02 -3.90832983e-02 -4.50767111e-03
    -1.92028135e-02 -3.55632380e-02 -3.54621634e-02 -8.01888667e-03
    -2.88315546e-02 -4.43624711e-04 7.01307144e-04 -4.31261305e-03
    9.22694150e-03 -4.96756937e-03 2.85957940e-02 -2.74818391e-03
    2.45047268e-03 -2.48773042e-02 2.27225758e-02 7.66229955e-03
    -1.03163952e-02 2.69099846e-02 7.81591516e-03 -3.12030427e-02
    -9.30358004e-03 -2.53300201e-02 -9.00550932e-03 4.26940067e-04
    -5.41278943e-02 -1.15963528e-02 1.89996716e-02 -2.59517878e-02
    -2.65045427e-02 -5.21421246e-02 -3.58655378e-02 -1.91224962e-02
    1.14130061e-02 -4.30002809e-02 -3.71732078e-02 -1.51046515e-02
    -1.59759112e-02 -2.52602007e-02 -3.18160951e-02 -1.04465764e-02
    -4.32188436e-02 -6.35800976e-03 -5.44290505e-02 -8.09806399e-03
    2.25733444e-02 -3.26942354e-02 -1.17151001e-02 -1.90993845e-02
    1.14319930e-02 -1.11975074e-02 3.74647118e-02 -1.55848451e-02
    -1.66818295e-02 -8.42696335e-03 -1.96894649e-02 -4.60239016e-02
    -1.24289915e-02 -4.55107689e-02 -8.71856697e-03 3.94255742e-02
    -1.76974460e-02 -2.47296188e-02 -6.76389551e-03 -3.96713540e-02
    -5.76364398e-02 -8.59760772e-03 -2.73547154e-02 -4.01705541e-02
    5.43186814e-03 -1.03604766e-02 -2.72962078e-02 -3.84900495e-02
    -3.39134187e-02 -3.15087624e-02 -2.36701220e-02 -1.36348428e-02
    -2.34880038e-02 1.34328837e-02 -6.30853977e-03 -1.50767085e-03
    1.28566921e-02 -3.26394178e-02 -2.19751634e-02 4.69804741e-02
    5.16923890e-03 -4.20524878e-03 1.12610031e-02 -1.91087034e-02
    -2.50076354e-02 1.59523468e-02 -1.61137693e-02 -2.88524944e-02
    -1.83588658e-02 -2.72751525e-02 -1.14851184e-02 1.13414172e-02
    1.33996056e-02 -8.67413636e-03 9.96662863e-03 -4.16432321e-03
    -3.43218148e-02 7.58237438e-03 -3.66308950e-02 -1.26771210e-02
    3.30930613e-02 -3.31029086e-03 -4.70226370e-02 7.36760441e-03
    -3.83563526e-02 -1.13493465e-02 1.11264933e-03 9.56141856e-03
    -3.08312494e-02 1.91978214e-03 -3.04867253e-02 -2.98870001e-02
    1.80435907e-02 1.18265033e-03 -3.61877959e-03 -2.16697212e-02
    9.33136733e-04 -1.14133535e-02 3.69527116e-02 2.57843081e-03
    2.31676525e-03 7.76400836e-03 -1.83755215e-02 -4.04830910e-02
    9.42051318e-03 -5.54787181e-02 -9.91136860e-03 5.97364604e-02
    1.23830698e-02 5.93764847e-03 2.09421087e-02 -2.73068678e-02
    -2.38854084e-02 3.15428264e-02 -1.67152993e-02 -2.40439940e-02
    1.38535136e-02 3.34363393e-02 -6.32632617e-03 -1.14352377e-02
    -4.61429134e-02 -3.91792692e-02 3.34406495e-02 -1.36192692e-02
    -2.38599014e-02 5.23600765e-02 1.86611898e-02 -1.09990882e-02
    1.03120701e-02 3.13098752e-03 -9.69417207e-03 3.57664712e-02
    -2.23818347e-02 -4.79635671e-02 -2.19852477e-02 2.76298169e-02
    5.05212555e-03 -4.13656607e-03 -2.66802078e-03 -3.52202691e-02
    2.30620964e-03 -2.38016136e-02 -2.96364701e-03 4.21390682e-02
    4.88001704e-02 -2.28790473e-02 9.01405234e-03 2.30182391e-02
    -2.13979892e-02 -4.22453647e-03 -1.98445562e-02 -2.08818056e-02
    6.70113266e-02 1.50093120e-02 -7.05192360e-05 2.10448578e-02
    4.41134488e-03 -3.88661912e-03 2.06121728e-02 1.95366330e-02
    -1.00693442e-02 2.82134954e-02 1.26027856e-02 2.02895771e-03
    3.43908854e-02 -1.65738575e-02 -1.79518238e-02 -3.93747985e-02
    1.17358821e-03 -3.16039063e-02 1.52558275e-02 -3.50198447e-04
    1.42621342e-04 1.00832190e-02 -1.52299341e-04 -1.22260563e-02
    4.32602130e-03 -3.58413905e-03 3.39614041e-02 1.13709643e-01
    6.05791807e-02 1.69018358e-02 9.10579879e-03 -1.97379030e-02
    -1.46887647e-02 6.12511719e-03 -1.07384473e-02 -3.91634461e-03
    7.96724558e-02 5.64733259e-02 -2.69639883e-02 3.10417209e-02
    -1.24322427e-02 -2.17258628e-03 2.05046544e-03 1.53941913e-02
    -1.76031552e-02 3.85093875e-02 -6.51062559e-03 -1.67290531e-02
    3.23658623e-02 -1.07319243e-02 9.04992875e-03 -7.09583890e-03
    4.94825747e-03 -1.82759333e-02 3.53576280e-02 -4.18956112e-03
    3.21394540e-02 2.60171760e-02 8.44293041e-04 5.35579224e-04
    -6.29022019e-03 -1.67277770e-03 5.29525895e-03 6.00068755e-02
    4.12849188e-02 1.55347157e-02 4.15457189e-02 8.29632580e-03
    2.85840575e-02 1.35606378e-02 9.02992673e-03 -1.36100210e-03
    6.30961135e-02 2.84516569e-02 -1.81272437e-04 3.39829251e-02
    1.66086890e-02 1.56707875e-02 1.93101373e-02 3.50454040e-02
    7.58156879e-03 7.06000403e-02 2.75367927e-02 -7.11150980e-03
    2.07817592e-02 -1.06495451e-02 2.50049327e-02 1.09102251e-02
    2.50881296e-02 1.26628252e-03 2.58994568e-02 8.30539782e-03
    2.28814539e-02 4.61200364e-02 3.38708013e-02 1.32614588e-02
    -4.56540175e-02 7.21012754e-03 2.08237804e-02 6.90566823e-02
    5.13371304e-02 3.53468470e-02 1.40207186e-02 -5.95505629e-03
    6.07291386e-02 2.84914244e-02 5.69694564e-02 7.63518810e-02
    9.24992636e-02 5.81341274e-02 -5.15046343e-03 -4.54017567e-03
    -2.13377178e-02 4.22439678e-03 -2.02586297e-02 2.27999911e-02
    -9.34746861e-03 2.94792559e-02 1.67967211e-02 2.48417407e-02
    1.31063545e-02 -9.39071551e-03 6.54827952e-02 3.24120671e-02
    4.22886461e-02 9.70913214e-04 4.68681417e-02 6.29634857e-02
    -2.65122987e-02 9.64741595e-03 2.42789686e-02 6.61558425e-03
    2.30076481e-02 7.16049317e-03 2.16710451e-03 1.74450092e-02
    1.28364014e-02 -8.43041297e-03 2.85346210e-02 -6.54358242e-04
    1.97645631e-02 -2.82076299e-02 -5.70900366e-03 -3.90868336e-02
    5.31938672e-03 -2.82732025e-03 -7.43567804e-03 4.13597049e-03
    -1.44560738e-02 -1.76759344e-02 5.49096428e-03 1.58178750e-02
    -2.73826532e-02 3.14542241e-02 2.59928275e-02 1.27468230e-02
    2.38008890e-02 -6.26629731e-03 1.25324987e-02 3.18311378e-02
    1.35077918e-02 -4.09947000e-02 2.68248022e-02 1.82112269e-02
    -2.34963857e-02 1.05174892e-02 7.80479331e-03 1.03799608e-02
    -2.21634582e-02 -2.00849604e-02 -2.41820468e-03 -9.75459442e-03
    3.08733783e-03 -2.64132563e-02 -5.71612641e-03 -1.57452077e-02
    1.82812102e-02 -4.17744508e-03 2.51278491e-03 -2.27948930e-02
    2.56401487e-02 -1.17755225e-02 -1.11660231e-02 2.57003307e-02
    -2.80596782e-02 -1.75870452e-02 1.94103029e-02 -2.53226579e-04
    -1.33923525e-02 -1.91923138e-02 -1.27358641e-02 -4.10462869e-03
    2.47861613e-02 -9.68264323e-03 1.85362864e-02 3.70412581e-02
    3.42330113e-02 1.51354298e-02 2.05762256e-02 -8.90326872e-03
    -7.12220371e-03 1.03005965e-03 1.29492697e-03 7.63793942e-05
    -4.11870368e-02 -5.09446487e-02 -2.41044387e-02 -1.05778093e-03
    -3.78528498e-02 6.06423756e-03 -4.85467538e-03 -4.27383073e-02
    -3.16079669e-02 -3.78868170e-02 9.40956362e-03 1.31801162e-02
    1.83093660e-02 -2.23209094e-02 -1.69763025e-02 5.65312570e-03
    -9.92351305e-03 1.50832850e-02 -3.78158242e-02 5.43474313e-03
    -8.33074935e-03 -1.61793921e-03 -3.56551744e-02 1.57230422e-02
    3.44531611e-02 -5.38272737e-03 2.77863350e-02 -1.82169292e-03
    2.84666009e-02 1.35697639e-02 2.01080889e-02 -1.35698123e-02
    -6.48136763e-03 -3.51970317e-04 -1.96448714e-02 -3.61458100e-02
    -2.55303383e-02 -2.77349316e-02 2.73136771e-04 -2.66797189e-03
    -2.26166267e-02 -1.20798554e-02 -3.76581936e-03 -3.67006548e-02
    -4.04008850e-02 -2.88822688e-03 -2.40854267e-02 -3.39394272e-03
    7.41556752e-03 -4.91471626e-02 -3.99461389e-02 1.58367343e-02
    -1.44016109e-02 -1.95643529e-02 1.69707499e-02 -1.76271442e-02
    1.93200111e-02 7.31186243e-03 -3.97772305e-02 -1.14112636e-02
    3.51643302e-02 6.16788771e-03 -2.63878293e-02 -3.77447531e-02
    -1.74026769e-02 -1.65485013e-02 1.11731677e-03 -2.42112707e-02
    -6.00446528e-03 -7.34036602e-03 -3.12641985e-03 -2.06851005e-03
    -2.70683202e-03 -2.16183066e-02 1.64420959e-02 1.36150932e-02
    -2.02610856e-03 -2.81939916e-02 -3.74712683e-02 5.92502858e-03
    -6.52512629e-03 2.20205486e-02 -1.03250341e-02 -3.60415690e-02
    1.92814544e-02 1.23168137e-02 -3.48186009e-02 -2.24354230e-02
    1.16843041e-02 -3.23433732e-03 -2.72096060e-02 -3.01393736e-02
    -1.88462008e-02 1.37473764e-02 -2.02188268e-02 2.72535998e-03
    3.73284379e-03 1.98728754e-03 7.87941366e-03 -9.27903317e-03
    -1.52391763e-02 -3.11763734e-02 1.61238760e-02 1.61663648e-02
    1.79932378e-02 -5.86861512e-03 -2.77276263e-02 -3.47029865e-02
    6.15243940e-03 -1.45818610e-02 3.25207002e-02 5.08781075e-02
    3.48498672e-02 1.89176865e-03 -3.10905594e-02 -2.44821794e-02
    -5.38189104e-03 -4.89299046e-03 -3.78332734e-02 7.87627511e-03
    2.14917324e-02 2.64620166e-02 -1.86831895e-02 -2.36934703e-03
    -2.34512892e-02 -3.70208384e-03 1.37249066e-03 -3.75455571e-03
    -3.36915366e-02 1.14617757e-02 -1.28827279e-03 1.49683878e-02
    2.09478922e-02 -1.24682877e-02 2.51409672e-02 -1.39011461e-02
    -4.05327156e-02 -2.99038235e-02 8.25623609e-03 -4.93846834e-03
    3.11941869e-04 -5.63607644e-03 -1.40394354e-02 -3.56099964e-03
    1.99600961e-02 8.82408291e-04 3.91231179e-02 2.74407025e-02
    1.70676913e-02 -1.49282841e-02 4.55314852e-03 -8.22604168e-03
    -7.35368393e-03 -3.74399498e-02 -5.53947361e-03 -5.44778584e-03
    -1.08142905e-02 -1.39124589e-02 8.22623540e-03 -1.44977379e-03
    -2.78590769e-02 -2.35365890e-02 -1.63433962e-02 1.03617308e-03
    1.42516447e-02 2.17632130e-02 -1.55817522e-02 -8.52185581e-03
    1.94855239e-02 8.99719261e-03 -4.75359056e-03 -3.88750657e-02
    1.92000566e-03 -1.44834956e-02 7.37070525e-03 -1.65839549e-02
    -7.82438181e-03 9.65649355e-03 4.72500781e-03 2.33898703e-02
    1.58944540e-02 -2.40380620e-03 1.53903961e-02 -8.86598416e-03
    -1.23835970e-02 8.73066857e-03 2.91268304e-02 1.10725183e-02
    -7.46761682e-03 1.69025641e-02 5.28496038e-03 -1.61464905e-05
    3.05274669e-02 5.92922838e-03 5.02597541e-03 2.41194181e-02
    2.08979007e-02 1.67335290e-02 2.81899199e-02 2.47353036e-02
    -2.23644660e-03 1.48282871e-02 1.07086301e-02 -1.24407874e-03
    3.13117579e-02 -1.05649671e-02 1.24056488e-02 8.35069828e-03
    -4.85417433e-03 4.31749155e-04 1.81664713e-02 -1.19918110e-02
    -1.95742827e-02 4.04904410e-02 1.07150888e-02 -4.58694203e-03
    4.01875786e-02 6.81716437e-03 8.17318726e-03 5.95742576e-02
    1.19188353e-02 -1.69898495e-02 2.83024437e-03 -1.64371412e-02
    1.87171511e-02 4.69570002e-03 2.06057522e-02 -1.86972637e-02
    1.00778639e-02 8.91194120e-03 2.26513240e-02 5.10739051e-02
    2.46773455e-02 2.35158522e-02 6.05614623e-03 1.91126950e-02
    -4.48260689e-03 4.41484936e-02 1.83184575e-02 2.17731781e-02
    -5.96511504e-03 -2.16348879e-02 4.09267433e-02 -4.52214666e-03
    5.11246035e-03 -1.69053152e-02 4.45690798e-03 2.10471321e-02
    1.29123097e-02 -2.27993689e-02 -5.43415807e-02 2.88965646e-02
    2.81808507e-02 2.65986938e-02 -3.31457146e-03 3.20440941e-02
    2.87027787e-02 3.68098058e-02 2.96722297e-02 -1.06759565e-02
    4.56512086e-02 5.49900830e-02 4.54905592e-02 -9.06032417e-03
    5.27867749e-02 5.21060452e-02 2.78556030e-02 -3.92653048e-02
    -4.41039391e-02 3.95431854e-02 1.40615059e-02 3.72391529e-02
    1.30266640e-02 2.58738883e-02 2.96698846e-02 -7.38404342e-04
    -8.67443625e-03 -3.38019170e-02 2.36898698e-02 -7.64405355e-03
    2.70715524e-02 -1.86298694e-02 3.35243121e-02 1.46866897e-02
    -2.15411801e-02 -1.89477541e-02 -3.45925353e-02 -1.51903098e-02
    -4.24120016e-03 -1.60871968e-02 -2.46062670e-02 2.55981162e-02
    2.55870726e-03 3.24056903e-03 -1.24659380e-02 -4.35543619e-02
    1.09034935e-02 5.47753423e-02 3.58848870e-02 -7.88364932e-03
    2.97465436e-02 1.94193292e-02 -4.64417972e-03 6.08437741e-03
    -1.99346263e-02 5.12764847e-04 -2.37839967e-02 -6.69210916e-03
    -2.56182123e-02 2.37786062e-02 -1.17450599e-02 -1.66539680e-02
    8.81277304e-03 -2.33277902e-02 7.58101046e-03 1.76039878e-02
    9.38057993e-03 -1.56423952e-02 1.89081486e-02 -4.19590296e-03
    -1.91382729e-04 -6.86409976e-03 -3.10467463e-02 -1.91715527e-02
    -1.04109182e-04 -9.36358701e-03 -2.78552044e-02 -1.96318775e-02
    5.13163628e-03 1.10039231e-03 -3.98404663e-03 -1.12380674e-02
    3.06999311e-03 2.78452151e-02 3.43628712e-02 -1.54761542e-02
    -2.34999061e-02 1.58329308e-02 8.54199100e-03 2.26287767e-02
    -2.44500991e-02 -1.49612837e-02 3.03737298e-02 -2.58016046e-02
    -2.27641221e-02 -4.41260310e-03 1.23997172e-03 2.55279075e-02
    3.80766504e-02 3.32895741e-02 2.04542484e-02 1.42024355e-02
    1.18649891e-02 -2.38384269e-02 -1.63413119e-02 5.22375945e-03
    -1.48763484e-03 -1.24294786e-02 -3.64433005e-02 -1.56379212e-02
    -2.00644005e-02 1.36016421e-02 2.29019336e-02 -1.18888859e-02
    2.40972801e-03 1.93345100e-02 6.99367980e-03 -3.62479873e-02
    -2.94649862e-02 -3.94301526e-02 2.01272522e-03 -1.23213511e-02
    1.75708625e-02 2.51708319e-03 4.35284339e-03 -9.66394134e-03
    -2.26316415e-02 -1.06415944e-02 -1.61299743e-02 -1.68056588e-03
    -5.28774166e-04 -1.64853539e-02 -3.56421270e-03 2.37504151e-02
    2.83570755e-02 -9.93423909e-03 -1.66648440e-02 -4.02265564e-02
    1.69778783e-02 -2.54835188e-02 -2.88208784e-03 1.17396712e-02
    -8.27481691e-03 7.75999390e-03 -2.35506389e-02 -1.12860082e-02
    -3.01360851e-03 -2.11443156e-02 8.68042291e-04 1.03400797e-02
    -2.28478410e-03 -3.05762906e-02 -1.02041997e-02 4.91976645e-03
    -2.26230267e-03 2.26553041e-03 -9.27044835e-04 -1.34474542e-02
    1.23355116e-04 -4.13531065e-03 -2.65825045e-04 -1.10971434e-02
    -1.17110880e-02 1.10930519e-03 -1.78494572e-03 6.40745135e-03
    -2.81366035e-02 -2.25777049e-02 -9.82135069e-03 -1.35299871e-02
    1.29177216e-02 -1.87016726e-02 2.65019275e-02 1.81566104e-02
    2.69594174e-02 -2.78381333e-02 -1.23319561e-02 -7.05982675e-04
    -4.32886221e-02 -1.48947313e-02 4.31820676e-02 3.80723029e-02
    2.03836635e-02 -1.35247372e-02 1.74816456e-02 1.57575551e-02
    -1.43266935e-02 -2.52382737e-02 -6.99177710e-03 -3.06221610e-03
    -2.06702258e-02 -2.88010444e-02 -4.74019162e-03 3.97565833e-04
    -1.65065110e-03 -2.27061529e-02 -1.57850643e-03 -2.67088693e-03
    4.73659532e-03 4.58444515e-03 2.14630142e-02 1.32392282e-02
    1.00832237e-02 8.08086619e-03 7.85530731e-03 1.17960321e-02
    -1.28684212e-02 -6.91617792e-03 -2.35050861e-02 1.36513766e-02
    1.38302520e-03 1.22791983e-03 -4.35910709e-02 -1.25730736e-02
    -1.15590729e-02 -9.30860173e-03 2.20514126e-02 3.09176254e-03
    -3.56305484e-03 1.37089500e-02 3.74706299e-03 -9.24585667e-03
    7.96373060e-04 -3.68716270e-02 -1.44622717e-02 -5.63747762e-03
    6.82287570e-03 2.51204148e-02 5.22161741e-03 -2.35627070e-02
    1.18471678e-06 -4.57517616e-02 -3.35199665e-03 -2.19704714e-02
    1.09217758e-03 -2.18343511e-02 9.87060182e-03 4.45313426e-03
    -2.77384394e-03 -3.93629000e-02 -1.87448002e-02 -7.23187532e-03
    8.07726476e-03 4.35944088e-03 9.47828032e-03 -1.02062328e-02
    9.80709121e-03 -2.72859782e-02 -8.68241023e-03 -1.70079675e-02
    -2.13852916e-02 -2.03230837e-03 -2.83960681e-02 -7.66757177e-03
    1.13328220e-02 1.38615281e-03 4.39660549e-02 1.66573748e-02
    -2.84534581e-02 -3.04976292e-02 6.55796565e-03 5.37604326e-03
    -1.82878152e-02 -3.01836748e-02 2.41111638e-03 2.04467196e-02
    2.22597215e-02 -9.45334509e-03 -1.08787045e-02 -3.04447312e-04
    -1.03611527e-02 -4.95692948e-03 2.41527613e-02 2.27657277e-02
    8.33541714e-03 8.69805273e-03 -8.33314564e-03 -3.42366174e-02
    3.49967852e-02 1.39352381e-02 -2.48682629e-02 -2.09327377e-02
    -1.42202806e-02 -7.39290146e-03 -8.63306876e-03 -4.38244566e-02
    -4.20333381e-04 1.84009653e-02 3.59035060e-02 -9.57835279e-03
    1.10846581e-02 1.19197527e-02 1.07710315e-02 4.13644174e-03
    -8.08657985e-03 -2.01459117e-02 6.82597281e-03 2.03697179e-02
    -3.93837271e-03 -1.98172610e-02 -2.07708031e-02 1.44587252e-02
    5.56838466e-03 -4.37908806e-03 -3.05770040e-02 1.00898200e-04
    2.43520178e-02 -6.39284030e-03 6.97331387e-04 2.10841484e-02
    1.84420068e-02 7.09788268e-03 -1.42242457e-03 -1.17538087e-02
    -3.79661238e-03 2.86405291e-02 1.74720283e-03 -3.90097760e-02
    2.37746220e-02 -3.23027233e-03 -1.64987929e-02 2.41964515e-02
    -9.09554306e-03 1.41633861e-03 1.27259456e-02 -3.48126236e-03
    -1.72194149e-02 -1.34689175e-02 -2.81028938e-03 1.93725768e-02
    2.11562198e-02 2.15380229e-02 -4.35782876e-03 -1.24460766e-02
    3.76680903e-02 5.70058217e-03 1.89004671e-02 -4.52258997e-02
    -1.12845590e-02 2.30853781e-02 1.46964313e-02 -7.92385917e-03
    3.32313627e-02 3.69054675e-02 -2.12321710e-03 9.99661535e-03
    6.36162236e-04 2.55497731e-02 3.02056260e-02 1.01082735e-02
    -3.04931607e-02 1.52172137e-03 1.55228740e-02 -9.67668183e-03
    3.52547839e-02 -6.25008810e-03 -7.33711058e-03 6.69859117e-03
    1.05087766e-02 -3.88510562e-02 -2.38699727e-02 8.85165762e-03
    3.16916741e-02 3.40158194e-02 -1.30534181e-02 3.05536273e-03
    1.73652694e-02 1.74344275e-02 -1.64467655e-02 -2.68874727e-02
    3.08048259e-02 4.98064421e-02 4.29331139e-02 4.24298644e-03
    2.31977329e-02 2.41164733e-02 3.06343893e-03 4.80556767e-03
    1.44466816e-04 8.39021523e-03 -1.44868009e-02 2.85269767e-02
    -1.88589178e-03 3.24620977e-02 7.92167522e-03 -1.15208933e-03
    2.20786873e-02 -2.86904890e-02 2.89257150e-02 1.64810829e-02
    3.90659422e-02 -1.11643048e-02 1.71875209e-02 -3.56739364e-03
    2.38109324e-02 5.05878869e-03 -4.64081578e-03 -1.42376665e-02
    6.93068653e-03 6.88072573e-03 -1.37572819e-02 3.52514200e-02
    6.41927077e-03 -1.69144338e-03 -1.94678195e-02 -2.53231693e-02
    -2.69838958e-03 2.19280720e-02 1.34497357e-03 1.49693796e-02
    1.69091932e-02 -1.63200330e-02 -3.01079378e-02 6.71165437e-03
    6.91839121e-03 9.39108941e-05 2.02859659e-02 5.57709311e-04
    -2.48158965e-02 7.64705054e-03 -1.26332045e-02 1.93590168e-02
    -1.33361761e-03 -1.36776073e-02 5.01971990e-02 4.05722223e-02
    5.23780519e-03 -3.02800387e-02 1.23986648e-02 2.13827915e-03
    3.10153030e-02 1.19067533e-02 -8.84228293e-03 4.23927698e-03
    2.28451267e-02 -3.40243801e-02 8.92042590e-04 -8.71121651e-04
    9.03054420e-03 1.69169083e-02 1.70354322e-02 2.53841411e-02
    1.27695296e-02 1.07118776e-02 -9.59289819e-03 -2.82809604e-02
    -1.59101319e-02 -1.05965510e-02 4.14941227e-03 -7.18288077e-03
    -1.90327745e-02 9.21854470e-03 1.25762820e-02 -3.61658074e-02
    -3.26547436e-02 2.58709700e-03 6.85248710e-03 4.51114066e-02
    7.20120370e-02 3.57648060e-02 6.11479431e-02 -4.34531597e-03
    1.38005828e-02 -1.82707224e-03 -1.35722850e-02 2.47007795e-02
    -9.60005540e-03 -1.35421790e-02 -1.36486692e-02 1.47602372e-02
    1.47301201e-02 -6.72791991e-03 -2.87324544e-02 -2.84844451e-02
    8.89233546e-04 -4.19076998e-03 -2.64536142e-02 -5.38125113e-02
    -1.29415444e-03 5.48184337e-03 3.19404081e-02 -3.82036460e-03
    1.29801594e-02 1.91057718e-03 -2.03733072e-02 3.73871461e-03
    -2.97024921e-02 2.34420858e-02 -1.73067935e-02 -2.62569338e-02
    -5.39849028e-02 -1.03094475e-02 -1.54244008e-05 1.34213800e-02
    5.01071885e-02 -1.45691577e-02 1.36194043e-02 -2.57970337e-02
    2.53266469e-02 1.42302336e-02 2.96620429e-02 4.96099927e-02
    2.03835778e-03 2.72692717e-03 -6.34144992e-04 1.58061215e-03
    3.98346148e-02 -4.84841177e-03 8.28734506e-03 -2.02753767e-02
    -4.29093279e-03 2.21921951e-02 1.68539714e-02 4.70701093e-03
    -7.26792123e-03 8.95693805e-03 2.96816835e-03 -4.02163826e-02
    -3.46547179e-03 1.28191495e-02 -1.82659421e-02 1.73020624e-02
    9.38388612e-03 -5.16816741e-03 6.87918207e-03 9.82211344e-03
    2.05168650e-02 1.37215545e-02 -1.81324109e-02 2.59172954e-02
    1.97278224e-02 3.65266390e-02 -3.54238111e-03 -2.94278152e-02
    -4.96917684e-03 -1.31721590e-02 4.70972015e-03 -1.06068458e-02
    -1.53928027e-02 -1.39462072e-02 -8.46978463e-03 -2.99842842e-02
    -1.36673702e-02 -1.20410221e-02 -8.97686277e-03 9.96915158e-03
    2.11606710e-03 5.22725983e-03 -1.21899992e-02 -2.80867014e-02
    -4.07489501e-02 7.85428972e-04 -2.52016764e-02 1.47417253e-02
    5.72130131e-03 1.71504878e-02 -1.74713340e-02 -1.86694004e-02
    2.68846825e-02 -1.90579258e-02 3.21590491e-02 -2.57868581e-02
    -6.66036643e-03 7.06539350e-03 -2.38330644e-02 2.96010673e-02
    1.30820684e-02 -8.05960037e-03 3.62311024e-03 1.10210385e-02
    -3.29531170e-02 -5.18137962e-03 3.31092067e-02 -1.96685968e-03
    1.79580078e-02 2.10418049e-02 1.04187997e-02 1.68640935e-03
    2.23517884e-02 -2.22427472e-02 5.74560538e-02 -5.50047029e-03
    -3.87625908e-03 -2.85291355e-02 1.60559025e-02 1.10530071e-02
    -5.35299210e-03 -2.56300885e-02 -1.83857437e-02 -8.71293899e-03
    -3.01550161e-02 -2.11466551e-02 3.03543508e-02 1.28473910e-02
    8.97581514e-04 -7.00666895e-03 2.53234059e-02 -1.01625863e-02
    3.26107107e-02 2.65450161e-02 -1.08304946e-02 5.65335527e-03
    4.91010733e-02 8.95336503e-04 -6.60168880e-04 -3.76602821e-02
    -1.18023353e-02 1.23513853e-02 -6.45446498e-03 -2.00508758e-02
    9.17990040e-03 1.53267216e-02 -7.34953769e-03 7.86783267e-03
    2.24228995e-03 2.73529999e-02 4.60874289e-02 -1.70569066e-02
    -1.92523319e-02 -5.76269403e-02 -2.81822332e-03 6.38578413e-03
    -9.40665882e-03 3.03279114e-04 -1.27870468e-02 1.28531344e-02
    -2.19769608e-02 -5.20829707e-02 4.35382687e-03 3.26424465e-02
    -2.51137232e-03 3.75710730e-03 -5.12473285e-03 2.43849624e-02
    1.77045465e-02 -1.16418879e-02 -1.62474979e-02 -6.54816162e-04
    1.30943442e-02 -7.30087655e-03 1.70957716e-03 -2.22811215e-02
    -8.47974513e-03 -2.46834364e-02 -2.98192333e-02 -3.12881544e-02
    -3.73726115e-02 -1.42660215e-02 2.69776992e-02 1.49193536e-02
    2.61794310e-02 -5.25936775e-04 1.94551554e-02 -3.07011697e-02
    -2.01859064e-02 -7.85702560e-03 -1.49352457e-02 1.59126222e-02
    -8.99225182e-04 -2.11909302e-02 1.27549805e-02 1.49272773e-02
    -1.13054821e-02 5.86919952e-03 1.36402929e-02 6.18739240e-03
    5.89883933e-03 -1.19097214e-02 1.44845406e-02 4.09964751e-03
    3.79164214e-03 2.24232264e-02 1.69140846e-02 2.49107070e-02
    -5.18642180e-03 -2.67032050e-02 -4.63793846e-03 5.54216234e-03
    8.83587450e-03 4.03541662e-02 -6.64765364e-04 6.10920135e-03
    -6.69920631e-03 -2.46449970e-02 1.04493154e-02 1.01803420e-02
    1.45910159e-02 -3.01042758e-02 2.39501037e-02 5.91173768e-03
    -1.00070406e-02 1.37882847e-02 -1.46021033e-02 1.85934585e-02
    3.24686931e-04 4.47793081e-02 -1.01245614e-02 4.78895800e-03
    -2.05045776e-03 -1.46606313e-02 3.90192121e-02 -1.88586917e-02
    1.51769128e-02 4.99930792e-02 3.71300317e-02 8.89863446e-03
    2.88432594e-02 2.80478355e-02 2.24540010e-02 8.43727123e-03
    -2.49518491e-02 -2.96238437e-03 3.65261734e-02 2.15669759e-02
    1.15471231e-02 -2.41684821e-02 -2.89566088e-02 -9.00534738e-04
    2.30288552e-03 8.32623057e-03 3.00776977e-02 -3.47983412e-04
    4.89253029e-02 1.83502864e-02 2.04127468e-02 1.44818388e-02
    1.45704497e-03 -2.48207673e-02 -1.83763988e-02 -5.05837612e-03
    -9.84107610e-04 8.95401612e-02 6.75521791e-02 1.78467520e-02
    1.35195488e-02 -2.15976816e-02 2.05457490e-02 1.25257503e-02
    4.21246467e-03 1.79446395e-02 -1.06424503e-02 2.55588498e-02
    -4.52172803e-03 -7.91608356e-03 1.81924161e-02 -5.56745427e-03
    -2.31306795e-02 6.67312066e-04 1.42478663e-02 9.09319613e-04
    2.29662284e-02 -3.08421929e-03 -7.87021779e-03 -2.64620595e-02
    -3.78163531e-02 -2.14160066e-02 -4.52559767e-03 -4.13567526e-03
    -7.42484396e-03 -1.30117848e-03 1.48772262e-02 2.83561479e-02
    -4.71473066e-03 1.14606461e-02 1.01688702e-03 -1.15427356e-02
    2.27558725e-02 -2.04618927e-02 -7.66024459e-03 -8.84196442e-03
    1.12941191e-02 -1.87033124e-03 3.62121244e-03 -1.20924006e-03
    -1.29802236e-02 -1.80465635e-02 6.76882965e-03 3.36940661e-02
    1.26705051e-03 -7.23937387e-03 2.54920423e-02 3.10142711e-02
    6.03194069e-03 -1.17303105e-02 1.54453740e-02 -1.42466938e-02
    4.09712130e-03 7.57238921e-03 -7.21912738e-03 2.40430422e-02
    2.66801808e-02 5.39388787e-03 -2.41245748e-03 -6.67977938e-03
    3.26822721e-03 -3.83922160e-02 -1.20753655e-02 -3.71806254e-03
    -8.89941305e-03 1.21394712e-02 3.53913233e-02 -3.04763496e-04
    -3.31490040e-02 4.46374016e-03 -4.72510175e-04 8.32618622e-04
    7.47971795e-03 -7.13054556e-03 -1.42619284e-02 -7.02053355e-03
    1.37403300e-02 -4.62138578e-02 -2.29925048e-02 -2.87869591e-02
    -2.88948696e-02 -3.63185406e-02 -2.04146970e-02 1.75217781e-02
    4.25705388e-02 2.87885275e-02 -1.14852432e-02 -1.21290153e-02
    6.34229034e-02 -7.17563881e-03 -9.07860510e-03 7.85674900e-04
    -1.99268088e-02 1.45606427e-02 -2.94825179e-03 -3.15351710e-02
    2.37609968e-02 -8.45746975e-03 -1.53545290e-03 1.04720527e-02
    -4.63188859e-03 -1.59972627e-02 3.47955637e-02 1.66670773e-02
    1.08471315e-03 2.47864728e-03 1.51511021e-02 -2.06327923e-02
    3.10536381e-02 1.52581334e-02 4.54396533e-04 1.80226341e-02
    2.88715474e-02 -3.21621373e-02 -1.69490296e-02 -1.85003038e-03
    -1.22126816e-02 1.30142896e-02 7.19628669e-03 -3.90062365e-03
    1.87178589e-02 -3.51348589e-03 1.97199080e-02 -2.89634205e-02
    2.40003541e-02 -5.39332815e-02 -3.74276866e-03 2.12640036e-02
    -1.95985027e-02 1.75478458e-02 5.02013452e-02 1.51464399e-02
    1.40162632e-02 -1.25459023e-03 5.15921321e-03 4.64582490e-03
    -1.16393133e-03 1.90852825e-02 9.73941875e-04 2.60791406e-02
    -1.95758827e-02 2.13327873e-02 -6.84978953e-03 5.00651356e-03
    6.21626386e-03 -1.93083920e-02 -2.32905354e-02 1.63058490e-02
    2.64039394e-02 1.30340252e-02 -2.77661420e-02 1.89367551e-02
    -1.64685491e-02 -2.07167640e-02 -1.08176442e-02 1.84922144e-02
    5.19175753e-02 4.14981619e-02 3.64670274e-03 7.90903904e-03
    9.18042660e-03 1.54540017e-02 -2.39732042e-02 -2.11636256e-02
    -6.04882417e-03 1.18800532e-02 4.14250009e-02 -3.31513095e-03
    4.06842716e-02 1.23969717e-02 2.62652300e-02 8.52870010e-03
    5.40636666e-03 6.98734075e-03 1.48708262e-02 -9.20868013e-04
    2.48572440e-03 -1.99886560e-02 -2.92257816e-02 -1.32940356e-02
    -4.38280683e-03 2.78122001e-03 -1.51381241e-02 3.00868247e-02
    2.90588140e-02 9.52211861e-03 7.39334058e-03 1.71449743e-02
    3.32871862e-02 -6.78727543e-03 -1.71500538e-02 1.16107818e-02
    1.94309838e-02 -1.69548038e-02 2.55189184e-02 -2.36207787e-02
    2.93001742e-03 -4.59311483e-03 -3.21594514e-02 1.35337785e-02
    1.70222260e-02 -7.50687160e-03 -9.98936128e-03 1.50556471e-02
    1.70274600e-02 -5.63540496e-04 2.10940856e-02 1.35179656e-02
    1.95081718e-02 -1.56030729e-02 -1.04950340e-02 -1.13221966e-02
    -4.47221473e-03 1.93942990e-02 -1.35982316e-02 -7.40370713e-03
    1.03269117e-02 -4.94430121e-03 -2.59123137e-03 -1.62857659e-02
    -2.58820895e-02 8.34009727e-04 1.25449747e-04 9.15875193e-03
    -5.59489354e-02 -2.39134561e-02 3.95779125e-02 8.13258532e-03
    -4.77621518e-03 -3.03493161e-02 -9.69501119e-03 1.04510728e-02
    -2.47644307e-03 -4.16200906e-02 1.65355485e-02 3.46734077e-02
    6.83173956e-03 2.92062201e-02 -1.22705440e-03 6.10323390e-04
    1.65506713e-02 9.90988407e-03 2.17169262e-02 -1.08745908e-02
    -1.38008492e-02 -1.46819968e-02 5.15047042e-03 1.74405538e-02
    -7.38722505e-03 -2.15524230e-02 -1.72487143e-02 -2.50744019e-02
    -2.58223787e-02 -4.63645980e-02 2.06658691e-02 3.33051197e-02
    -3.68386420e-04 -2.38372758e-03 1.60410404e-02 1.02535198e-02
    2.50268877e-02 4.04678993e-02 -1.88817969e-03 -1.87686272e-02
    5.23999939e-03 1.29218623e-02 -4.76573408e-03 -3.45070139e-02
    -2.82669766e-03 -6.78862398e-03 -5.80382301e-03 -1.58167742e-02
    3.25812586e-02 2.19106972e-02 1.04153585e-02 -1.86818521e-02
    8.03667307e-03 3.83339748e-02 5.10167740e-02 1.33923674e-02
    -8.58563650e-03 -7.88221695e-03 1.35161616e-02 4.99711838e-03
    -3.97786237e-02 1.76873598e-02 -5.54218935e-03 3.71807888e-02
    -6.28634682e-03 -3.42642479e-02 6.41014008e-03 -1.84559170e-02
    1.58907771e-02 8.01175274e-03 1.94469914e-02 5.30225746e-02
    6.57063397e-03 9.10123345e-04 -1.80217214e-02 1.20458789e-02
    -8.20605457e-03 9.99933016e-03 -2.86944713e-02 2.40667025e-03
    4.90774680e-03 -1.41017442e-03 -2.39320155e-02 -4.73181345e-03
    1.82233322e-02 -3.02837770e-02 3.13872881e-02 2.49954686e-02
    4.07831594e-02 1.65974274e-02 4.02526855e-02 1.34568652e-02
    -3.01901833e-03 1.02634383e-02 -2.61037424e-02 -1.77118427e-03
    3.53788435e-02 4.64509390e-02 1.36853876e-02 -7.35126389e-03
    -1.76274199e-02 -2.01340038e-02 1.70170236e-02 -1.54247312e-02
    3.01705431e-02 3.29940841e-02 2.24448349e-02 -3.57325897e-02
    1.11068850e-02 2.45673023e-02 -1.39689334e-02 -2.81348862e-02
    -1.43533368e-02 -8.19783844e-03 5.02747074e-02 9.12343792e-04
    -7.37286871e-03 7.99628813e-03 2.44984357e-03 -1.93686597e-02
    3.02677508e-02 3.26401033e-02 6.35154938e-05 2.81518660e-02
    5.36132120e-02 4.33864370e-02 3.97957228e-02 1.26023954e-02
    2.28402819e-02 -5.77119133e-03 -8.21307395e-03 -7.67209800e-03
    1.67250093e-02 3.88757065e-02 2.62152124e-02 2.36658007e-03
    1.00889662e-02 2.02555628e-03 6.06372068e-03 1.26821455e-02
    -2.38156226e-03 5.24690114e-02 -2.79809088e-02 3.11941970e-02
    4.22708951e-02 4.04508086e-03 1.55046880e-02 -2.38403790e-02
    -1.90996323e-02 -1.35709718e-02 2.56724190e-03 4.82352497e-03
    7.31549785e-02 3.78649086e-02 1.73181621e-03 -3.78307351e-03
    1.59165785e-02 -2.60674078e-02 -2.37111300e-02 -7.89606757e-03
    8.72110482e-03 6.06579334e-03 3.75833958e-02 -1.49106709e-02
    3.40046324e-02 2.05747727e-02 -1.16463574e-02 -1.01368539e-02
    -7.62976985e-03 2.32718326e-02 -5.83955180e-03 2.14209519e-02
    -3.13950307e-03 4.11362387e-02 -6.83689257e-03 -5.30520501e-03
    -3.86811383e-02 9.65849403e-03 -9.26342327e-03 1.03517305e-02
    1.35549726e-02 -6.46392489e-03 -2.32789014e-03 1.09672104e-03
    2.35960986e-02 -1.29395220e-02 2.74378546e-02 1.42845954e-03
    -7.64979422e-03 7.99472537e-03 -2.83597074e-02 -1.75670942e-03
    1.22974925e-02 -3.49433944e-02 1.38201006e-02 -2.05924250e-02
    3.81315034e-03 -2.62334477e-02 -3.54815386e-02 -3.41402739e-02
    1.59316752e-02 -8.27356149e-03 -4.55806740e-02 -2.12688502e-02
    -2.22246964e-02 -1.13258157e-02 6.46797642e-02 -3.32207456e-02
    2.70937756e-03 1.75894294e-02 2.00217981e-02 3.11259110e-03
    -1.76866632e-02 8.15118290e-03 -6.81502139e-03 8.07385441e-05
    -2.21167449e-02 -2.74082776e-02 -1.00645684e-02 1.14716627e-02
    -2.86316294e-02 -2.52869595e-02 -2.58019213e-02 -3.53490300e-02
    2.14839280e-02 -5.82146831e-02 -7.52349291e-03 2.13595969e-03
    5.70600620e-04 -1.76770668e-02 -1.28353722e-02 8.71600583e-03
    1.33401842e-03 -6.36839599e-04 -1.70082096e-02 1.40969153e-03
    2.95825619e-02 -1.53193157e-02 -3.67813148e-02 -2.93342173e-02
    2.60290690e-02 -2.88146809e-02 -1.36791002e-02 -1.33378655e-02
    -5.50198648e-03 1.82428304e-02 -1.53596308e-02 -3.04368548e-02
    -3.19325179e-02 -7.42295198e-03 -1.92974769e-02 -6.39010780e-03
    -1.56190796e-02 -1.41903583e-03 -3.71439103e-03 1.66760571e-02
    2.71601398e-02 -3.09120025e-03 1.60490703e-02 2.06874698e-04
    2.95509249e-02 -5.32854395e-03 3.61475744e-04 -1.52150095e-02
    1.62388571e-02 -8.81108455e-03 1.71822496e-02 1.62212010e-02
    -1.72430202e-02 -1.69965886e-02 6.67754142e-03 -3.69230285e-02
    3.25012617e-02 4.46247123e-02 5.61478781e-03 1.26746492e-02
    -1.01132952e-02 -3.90405692e-02 1.43147055e-02 2.31028628e-02
    -1.00023989e-02 5.02180755e-02 8.89268797e-03 -9.76648182e-03
    8.49454012e-03 8.86964798e-03 -1.95121150e-02 -1.26241064e-02
    -1.04207275e-02 -2.20585521e-02 -1.36224916e-02 2.85228025e-02
    6.96562603e-03 3.92582687e-03 1.09541258e-02 -2.73104310e-02
    -5.69237489e-03 -3.85499233e-03 1.15424406e-03 2.74706706e-02
    7.67933344e-03 1.85660610e-03 -4.76906169e-03 -3.18441167e-02
    -1.55121479e-02 1.52248647e-02 7.25800754e-04 -1.68158542e-02
    1.88150350e-02 1.83507465e-02 -8.45817756e-03 -3.16802412e-02
    -2.66463663e-02 -1.84725672e-02 -4.76793339e-03 -9.29297414e-03
    -3.19363214e-02 2.24085767e-02 4.74221539e-03 2.33715456e-02
    -2.30684001e-02 -2.08708309e-02 -2.71248701e-03 1.51214760e-03
    -2.20014136e-02 1.19180037e-02 2.25513298e-02 -7.14864209e-03
    1.73784420e-02 -1.32437060e-02 1.01334965e-02 1.36285340e-02
    -2.90607456e-02 -2.57966835e-02 -8.80302209e-03 -8.44892988e-04
    2.95131430e-02 1.90750547e-02 1.51930070e-02 -1.02966456e-02
    2.79527232e-02 2.34653056e-02 -1.36134587e-02 -3.76983956e-02
    2.84064952e-02 -2.42109206e-02 -8.56968574e-03 -1.97004322e-02
    -3.25923674e-02 -5.19633619e-03 -7.61429965e-03 -2.51064375e-02
    -2.65717022e-02 -1.09566906e-02 1.53390998e-02 1.28828911e-02
    1.12518575e-02 1.46581419e-02 -1.49760442e-02 -1.01777315e-02
    -1.57929268e-02 -2.16592047e-02 7.05306558e-03 -2.27626842e-02
    -2.13135090e-02 -1.59161258e-02 9.21251718e-03 1.11901714e-02
    3.58254183e-03 -4.19037044e-02 -4.28611152e-02 -9.57493670e-03
    2.49992032e-03 3.30343843e-02 -7.08213774e-04 -1.46007603e-02
    -5.38449921e-03 2.97426730e-02 4.98100594e-02 9.53441858e-03
    7.62655819e-03 -2.30734167e-03 1.59712275e-04 8.10670480e-03
    -4.62637795e-03 -5.29478118e-03 1.76135320e-02 2.23480593e-02
    5.32559461e-05 2.48285644e-02 -7.38040730e-03 -4.20609396e-03
    -1.57801108e-03 -2.39785779e-02 -1.46217020e-02 3.73457968e-02
    3.48339439e-03 -2.59818546e-02 8.16221908e-03 -8.07512179e-03
    -8.43135081e-03 -3.41278017e-02 8.72062426e-03 -1.34523930e-02
    4.68235277e-02 3.97734679e-02 -7.00630015e-03 1.60014983e-02
    9.58011858e-03 -3.54106091e-02 2.26487890e-02 2.63307560e-02
    1.47279799e-02 3.77742946e-02 1.94311589e-02 -8.00111052e-03
    2.73001883e-02 7.11375661e-03 -4.32667173e-02 1.56730283e-02
    -6.68316940e-03 1.22623136e-02 5.03805313e-05 1.03086755e-02
    -1.23028373e-02 5.74080134e-03 1.52371339e-02 -9.24334582e-03
    4.11417568e-03 -3.50983534e-03 -1.96362026e-02 8.80665518e-03
    -8.10225029e-03 1.66018177e-02 1.84623580e-02 1.55972484e-02
    -2.52037179e-02 5.51471137e-04 -3.90743576e-02 -1.45866582e-02
    3.61588271e-03 -1.80846676e-02 -4.37520491e-03 -4.02529445e-03
    3.82376276e-02 -5.39632607e-03 2.37737074e-02 3.33570689e-02
    6.68228641e-02 -1.65582318e-02 4.05997299e-02 8.94082151e-03
    2.89696325e-02 6.99013378e-03 -7.08172377e-03 -3.52592506e-02
    1.65125949e-03 7.24852597e-03 -8.25995300e-03 1.42995026e-02
    3.38544138e-03 2.06080880e-02 4.94060526e-03 -1.41984327e-02
    -7.45622814e-03 2.96735158e-03 1.27666807e-02 7.13979546e-03
    1.88712571e-02 -5.67947049e-03 -1.58600614e-03 -5.67196636e-03
    -1.29441628e-02 -6.52402863e-02 1.59976482e-02 -2.82239132e-02
    4.52408846e-03 -3.64369452e-02 -3.35946381e-02 -9.91034135e-03
    1.16914453e-03 1.25174541e-02 5.02913725e-03 3.65998223e-02
    2.25709938e-02 3.61273699e-02 2.84342226e-02 -7.02835806e-03
    2.11695433e-02 -1.85788714e-03 -2.04886626e-02 -2.00954154e-02
    -1.86171029e-02 4.49555144e-02 3.10293343e-02 4.63100150e-02
    1.99148003e-02 3.82789713e-03 -1.00382380e-02 5.71246957e-03
    -1.06495665e-03 5.89952096e-02 2.53058374e-02 4.10549417e-02
    -3.56281996e-02 -4.00085039e-02 -1.24650635e-03 -1.64207257e-02
    6.25366019e-03 2.64850073e-03 -2.73690931e-03 -8.05772562e-03
    -4.55474481e-03 -2.91099232e-02 -2.00394001e-02 -2.41544377e-02
    4.27654339e-03 -2.45468374e-02 -3.87854837e-02 2.02924591e-02
    -1.16362777e-02 -2.63187736e-02 6.94764685e-03 -7.29732448e-03
    1.55575573e-02 1.36415223e-02 -7.71210901e-03 -2.63043772e-02
    1.04831066e-03 -1.10519901e-02 -6.37807557e-03 2.10873857e-02
    -1.78418530e-03 3.20726000e-02 -4.77237673e-03 -3.42038162e-02
    -2.39181314e-02 4.55217399e-02 -7.79335853e-03 -7.51150539e-04
    3.17603233e-03 8.77297483e-03 4.20670398e-02 1.67893954e-02
    3.61747332e-02 -6.07034331e-03 1.85461547e-02 -3.72100039e-03
    -1.66747021e-03 -1.47011718e-02 3.55231087e-03 4.41674590e-02
    9.33540147e-03 -2.73049679e-02 -1.50282662e-02 -1.33083593e-02
    1.42707198e-03 -1.18866758e-02 -3.19513269e-02 -2.30897162e-02
    7.11299293e-03 -8.26113019e-03 -3.05162445e-02 -5.20673580e-03
    -1.47835910e-02 -1.15670916e-02 3.35683562e-02 6.47994643e-03
    1.57864001e-02 -4.00676299e-03 -2.89470702e-03 -9.30327084e-03
    -2.36748289e-02 -3.80429882e-03 -1.01821264e-02 -3.81461978e-02
    -1.89629253e-02 -6.67088805e-03 -7.71930348e-03 3.72252869e-03
    2.39526704e-02 2.32197251e-02 2.85682529e-02 -2.69146748e-02
    2.59901620e-02 -1.12973130e-03 -3.28654237e-02 4.09690803e-03
    -9.61783901e-03 -2.30041761e-02 1.20940036e-03 1.52757834e-03
    3.13844299e-04 1.36281028e-02 1.36283683e-02 -8.34304187e-03
    7.64336064e-03 -3.12289572e-03 -1.78393349e-02 1.54671138e-02
    -4.77310922e-03 1.00885723e-02 2.03280803e-02 1.59128290e-02
    -7.76544074e-03 -2.13079737e-03 -8.48916359e-03 -3.49202044e-02
    1.06128762e-02 1.78578477e-02 -4.75941449e-02 -2.42252983e-02
    5.34829963e-03 -2.14205012e-02 1.77122653e-02 9.53557342e-03
    -2.06469148e-02 3.41407117e-03 1.36662917e-02 -1.13278814e-03
    3.16386321e-03 1.63387638e-02 -6.78374479e-03 2.72882245e-02
    -8.64708610e-03 -2.91682780e-02 1.42504890e-02 -1.92798320e-02
    -5.39326482e-03 1.44918337e-02 8.53290036e-03 -2.32842881e-02
    -2.31470726e-02 2.39474792e-02 2.87254248e-03 2.07598340e-02
    -3.02376486e-02 2.38335915e-02 1.98050612e-03 6.11899560e-03
    6.85927644e-03 4.27856995e-03 -2.35756952e-02 -1.79624762e-02
    1.40384659e-02 -5.58502227e-03 -1.77004039e-02 1.77233177e-03
    -5.84848365e-03 -1.55094350e-02 -8.48293491e-03 8.67032353e-03
    1.87310521e-02 -1.46473218e-02 7.55010638e-03 2.92089581e-03
    2.77889450e-03 -1.49738370e-02 -4.05266741e-03 -1.55116832e-02
    2.03165431e-02 1.78762022e-02 2.55702958e-02 -3.21473181e-02
    1.72622763e-02 -1.09695669e-04 -6.38368260e-03 1.00795703e-03
    2.72993557e-02 -1.25460131e-02 -6.37430744e-03 1.87324069e-03
    9.28234309e-03 3.10621746e-02 -2.76186895e-02 -3.71646807e-02
    -8.91558919e-03 9.35773645e-03 1.58149563e-02 2.39435285e-02
    -6.30561961e-03 -9.89811495e-04 -1.00333756e-02 2.45701452e-03
    -4.14424315e-02 -6.08620699e-03 7.33085210e-03 -5.59167052e-03
    -4.31963895e-03 -4.77835629e-03 1.57616343e-02 5.93223888e-03
    2.00750376e-03 -5.04974909e-02 -2.78263334e-02 -1.76332481e-02
    2.87625361e-02 1.16586313e-02 1.06067182e-02 1.40239354e-02
    5.51688261e-02 5.82098123e-03 9.51867737e-03 5.68208424e-03
    4.68108952e-02 1.36211431e-02 -2.36921534e-02 -1.34431254e-02
    4.26821783e-03 1.02724386e-02 2.30076746e-03 -3.33557054e-02
    -3.35767902e-02 3.35375406e-02 2.74762027e-02 -9.08490547e-05
    8.51895753e-03 5.92050003e-03 3.03023290e-02 4.43945359e-03
    -2.09339093e-02 9.81936976e-03 1.46602364e-02 3.94806080e-03
    -2.17880569e-02 -2.81318929e-02 7.43468618e-03 -1.86550599e-02
    -1.07813561e-02 -3.58748063e-02 -1.48253608e-02 1.93033032e-02
    1.53996209e-02 -1.21248774e-02 -1.92495137e-02 -4.27353056e-03
    -3.92040648e-02 3.69284786e-02 3.36274579e-02 -1.49023272e-02
    2.82601826e-02 1.27439713e-02 -2.40027923e-02 -2.82324497e-02
    1.74253620e-02 -3.00261267e-02 -7.52657373e-03 -3.92412813e-03
    -1.63900144e-02 1.35242129e-02 9.85140912e-03 -3.96770015e-02
    1.31280837e-03 -8.03871022e-04 -2.33047679e-02 -1.34010455e-02
    3.52157019e-02 -9.85135976e-03 2.79725380e-02 -3.82976532e-02
    -5.90265915e-02 -4.89308052e-02 -3.21937762e-02 -4.93212342e-02
    -1.75892822e-02 -7.78385904e-03 -2.16630083e-02 5.95157384e-04
    4.21112031e-02 6.66486472e-03 2.62425723e-03 1.06560066e-02
    -1.33490842e-02 9.26859956e-03 2.06225086e-03 2.05674418e-03
    2.71051545e-02 1.79836303e-02 -2.15961337e-02 5.07270359e-03
    -1.29547976e-02 -6.62158756e-03 -1.85750984e-02 -5.13478778e-02
    -7.06767291e-03 3.56626697e-03 1.23591907e-02 -1.38287414e-02
    -1.87084209e-02 -1.19325137e-02 -3.01809311e-02 3.53997461e-02
    -3.66742752e-04 5.25502907e-03 1.30934948e-02 -1.02858590e-02
    -4.65029702e-02 -3.88662629e-02 -1.29644293e-02 -3.62980664e-02
    1.82231646e-02 -3.42192501e-02 -1.66029818e-02 -1.03892758e-02
    -1.71676278e-02 1.41484791e-03 2.24638209e-02 -1.13816012e-03
    4.34211269e-02 8.98291636e-03 2.84754410e-02 -1.02589773e-02
    -6.16231281e-03 9.22380248e-04 -1.32218953e-02 -4.45590261e-03
    1.72675662e-02 4.24494296e-02 1.05659831e-02 -1.06614192e-04
    -2.52096280e-02 3.57523980e-03 7.83239026e-03 -1.76806320e-02
    6.52493304e-03 1.18122688e-02 8.37450475e-03 1.46816438e-02
    2.07570437e-02 6.48320478e-04 1.89467780e-02 9.85931884e-03
    -1.94445942e-02 -4.05961163e-02 -1.13905007e-02 1.59903765e-02
    8.94226786e-03 -5.96488873e-03 -2.75703594e-02 1.34600345e-02
    1.04350699e-02 -1.68058481e-02 -2.98629212e-03 9.42873582e-03
    8.17826986e-02 3.70958145e-03 1.80168357e-02 -2.56923418e-02
    5.09889517e-03 -6.94096368e-03 -1.49191339e-02 -2.61710323e-02
    -1.57978032e-02 3.19444016e-02 -1.59197450e-02 2.00321581e-02
    5.75650902e-03 -8.52395408e-03 4.44853976e-02 2.56454293e-02
    1.53710600e-04 3.65025625e-02 2.38260790e-03 1.87555663e-02
    2.76635401e-02 -7.66242063e-03 2.75079980e-02 -7.30792014e-03
    2.99781375e-02 -2.26882417e-02 2.29996126e-02 -3.99609767e-02
    2.15222705e-02 3.54652852e-02 5.59029588e-03 -3.87295783e-02
    2.98813879e-02 -1.83662679e-02 -4.29584347e-02 2.89326869e-02
    2.28944421e-02 -9.05377232e-03 -2.31170133e-02 2.71920185e-03
    5.47409095e-02 3.87559421e-02 -5.43228351e-03 -3.93763259e-02
    1.17993949e-03 -1.92515403e-02 -1.92888770e-02 2.91688610e-02
    2.58326977e-02 3.60762328e-02 3.78238447e-02 7.81129021e-03
    -1.77756371e-03 1.76438522e-02 6.80581527e-03 -1.92261040e-02
    -5.96964061e-02 -2.16850266e-03 3.76373380e-02 1.91184145e-03
    9.68648959e-03 2.67300452e-03 2.04715040e-02 1.09365517e-02
    7.41300965e-03 -5.09852730e-03 -4.50818799e-03 2.09821332e-02
    8.55347700e-03 2.02273354e-02 -9.09227878e-03 -1.26771703e-02
    1.70268938e-02 -3.69245894e-02 2.00680140e-02 -6.44331379e-03
    2.06840020e-02 1.36772627e-02 2.24140286e-03 6.05049124e-03
    -1.39933852e-02 5.05208271e-03 2.87581701e-03 -2.92371660e-02
    -1.46280080e-02 2.43835617e-02 8.29706667e-04 8.39331467e-03
    1.68379694e-02 -1.63077507e-02 4.26876955e-02 -3.03485454e-03
    -2.77666543e-02 -1.06765144e-03 1.88772697e-02 -3.52643849e-03
    5.92475710e-03 -2.34149490e-02 -1.50340202e-03 9.61107388e-03
    3.98742035e-03 -2.46380698e-02 2.70271152e-02 2.87383497e-02
    1.77358333e-02 -1.04161538e-03 6.87750336e-03 -6.06606808e-03
    1.62735470e-02 -2.19902582e-02 -6.02938281e-03 -1.47644589e-02
    2.68424712e-02 6.39534742e-03 4.32750164e-03 -8.40370823e-03
    1.11798197e-02 2.34251563e-02 -1.76959473e-03 1.83935668e-02
    6.39890553e-03 1.75788235e-02 1.57117266e-02 -3.12175006e-02
    -3.68978567e-02 -4.00735028e-02 1.44191913e-03 -1.48486663e-02
    -6.09221533e-02 -2.59007001e-03 2.77090315e-02 2.22982895e-02
    -1.91005990e-02 -1.20226750e-02 4.65610111e-03 1.23618292e-02
    4.44863215e-02 6.31253747e-03 -4.48969542e-04 3.55107486e-02
    8.35999567e-03 -1.23049074e-03 2.58090105e-02 5.23221353e-03
    -4.21220757e-04 -2.76124245e-03 -8.94960947e-03 -2.90521197e-02
    1.51193691e-02 2.11743340e-02 4.47267806e-03 -3.88105540e-03
    1.88200176e-03 -1.18776010e-02 1.44129628e-02 -1.06217610e-02
    -1.30868768e-02 6.16559805e-03 -1.32888614e-03 -1.84939057e-02
    6.61492860e-03 -4.22526570e-03 -7.58033805e-03 3.02278548e-02
    9.51786712e-03 -8.34092684e-03 -1.50562227e-02 8.76801554e-03
    -2.39841640e-02 -5.93480375e-03 3.89253674e-03 -2.26894151e-02
    4.54753414e-02 -3.89375899e-04 -3.24679562e-03 6.70697587e-03
    5.05275279e-02 1.09100966e-02 -1.45712625e-02 2.22501941e-02
    1.46900406e-02 -3.41776130e-03 -2.96122134e-02 8.84810463e-03
    4.55459058e-02 1.45230591e-02 -1.16615156e-02 -1.37739470e-02
    -1.36889657e-03 1.86153688e-02 -1.25775579e-02 -3.35357003e-02
    -9.67897661e-03 1.83759481e-02 2.06243806e-03 -2.45534517e-02
    -1.62511524e-02 1.57055650e-02 1.85795408e-02 7.26129720e-03
    -3.09242923e-02 6.79599913e-03 1.21779442e-02 -6.60336344e-03
    -7.14653591e-03 -3.97623423e-03 3.80244628e-02 -8.71899538e-03
    -6.60486473e-03 -2.48592291e-02 7.07298843e-03 8.98951199e-03
    2.08822824e-02 1.35254441e-02 6.90443674e-03 -2.59951726e-02
    3.60131525e-02 1.13345683e-03 -1.63814034e-02 -2.42372067e-03
    1.50764426e-02 2.16077827e-02 -2.58595031e-03 1.79998837e-02
    1.74830817e-02 -3.16393380e-05 -1.00057907e-02 -1.92805640e-02
    -1.65843274e-02 -5.78416511e-03 1.85963809e-02 1.72085240e-02
    -1.95180029e-02 6.07093563e-03 2.44663805e-02 9.49590839e-03
    1.36318421e-02 4.22286578e-02 2.57903319e-02 1.32478820e-03
    1.00987377e-02 3.03226220e-03 7.68180937e-03 3.58062657e-03
    1.45000275e-02 5.87182702e-04 1.69452801e-02 -6.76694093e-03
    3.40170562e-02 -2.73976987e-03 2.27376670e-02 1.84074398e-02
    1.59959421e-02 2.01349128e-02 2.92642247e-02 -3.13121751e-02
    1.26400515e-02 -3.46098421e-03 3.11331358e-03 -6.90052193e-03
    -1.48553373e-02 -2.05029156e-02 1.45933237e-02 -1.72085762e-02
    -3.85296792e-02 3.87883373e-03 3.94637771e-02 1.94509886e-02
    1.62107926e-02 2.92123836e-02 2.15897411e-02 6.81577995e-03
    1.77422818e-02 -6.47877669e-03 -8.69555224e-04 -2.35470315e-03
    -7.76554784e-03 -4.33349907e-02 1.49453140e-03 -1.80232525e-03
    -8.19375739e-03 1.03727439e-02 -3.06043774e-02 -1.85253960e-03
    1.57461762e-02 5.26277488e-03 2.02139840e-02 1.48627227e-02
    -2.88657891e-03 5.20739742e-02 2.91911568e-02 -2.45413445e-02
    -3.86864296e-03 3.40886205e-03 -3.43582295e-02 -2.82241520e-03
    -1.04113491e-02 1.66350920e-02 4.68767509e-02 1.83478128e-02
    -2.19028648e-02 9.58979782e-03 6.36013784e-03 -1.83931310e-02
    -1.95062887e-02 9.38678347e-03 6.94540935e-03 -1.78080741e-02
    1.42316278e-02 -2.00084634e-02 -2.13205665e-02 -1.05495695e-02
    -3.32999043e-02 -1.51852602e-02 8.52891710e-03 2.02516522e-02
    1.54500017e-02 9.39068012e-03 -2.35225502e-02 -2.76223104e-02
    1.04123587e-02 -1.33732921e-02 -1.87017340e-02 6.81610452e-03
    3.21113281e-02 5.10763004e-02 2.76229475e-02 -1.61937159e-02
    5.57076326e-03 -1.37498481e-02 -2.74338499e-02 -2.34202780e-02
    1.16372039e-03 5.94527163e-02 5.03248423e-02 9.67442431e-03
    -7.96866510e-03 -4.02808841e-03 3.13577317e-02 -1.56725049e-02
    -1.08173732e-02 1.12377834e-02 -6.71365112e-03 -2.38471813e-02
    4.15207865e-03 -1.83349550e-02 1.12446751e-02 1.83988996e-02
    -2.98643522e-02 -9.40548256e-03 3.22631211e-03 -2.29919478e-02
    1.06307995e-02 -1.02823423e-02 8.51990422e-04 2.93604797e-03
    -6.49072230e-03 -1.56524796e-02 -4.18515736e-03 4.10259627e-02
    5.65705448e-02 4.45347875e-02 8.29735678e-03 -8.07846710e-03
    5.31144952e-03 -1.12226587e-02 -4.48987959e-03 -1.31020816e-02
    2.60849744e-02 4.00871933e-02 -2.32851673e-02 -3.23004127e-02
    -1.27968555e-02 -1.86947212e-02 2.44898293e-02 -1.51753603e-02
    2.72629373e-02 5.17295785e-02 7.57833198e-03 3.40037141e-03
    -2.71039438e-02 -4.08294518e-03 3.04760505e-02 1.28112957e-02
    -2.03410666e-02 -1.81962196e-02 7.28692580e-03 2.47299261e-02
    -8.38127686e-04 -4.72026616e-02 -1.99996009e-02 2.21833517e-03
    1.65256076e-02 2.81399046e-03 9.62279458e-03 3.30649316e-04
    2.69454103e-02 4.34392504e-03 -2.94243973e-02 -1.76389720e-02
    4.62438129e-02 -2.38611968e-03 -1.06300591e-02 1.04448618e-02
    2.77161654e-02 2.85281334e-02 3.42985652e-02 -5.12601051e-04
    2.12510843e-02 4.18066308e-02 4.36416036e-03 -1.47276204e-02
    6.91550039e-03 3.54954461e-03 2.52760760e-02 1.41150923e-02
    -1.00210439e-02 -1.60927679e-02 2.40748376e-02 2.37406306e-02
    -2.20037345e-02 -8.88914894e-03 1.95322949e-02 -5.02896216e-03
    -2.62596980e-02 -1.63092874e-02 -4.27260948e-03 2.96688154e-02
    1.46690439e-02 -6.83538895e-03 2.44863587e-03 9.55957081e-03
    2.29816362e-02 5.56696206e-03 -2.13662777e-02 -8.84837937e-03
    3.58733460e-02 2.05444526e-02 3.49021214e-03 -3.39339697e-03
    5.43758180e-03 1.19341388e-02 3.03804632e-02 1.57148037e-02
    4.83222194e-02 2.43398529e-02 1.10445907e-02 -2.99073495e-02
    -1.41985686e-02 -1.93118937e-02 -1.86449084e-02 -2.16509271e-02
    -3.47471498e-02 -2.83333566e-02 7.53787998e-03 2.43569687e-02
    3.31328958e-02 7.88194686e-03 1.62838807e-03 -2.69088652e-02
    -1.11575448e-03 -6.67198934e-03 -1.05603095e-02 1.83809511e-02
    -1.10554975e-02 -2.22736294e-03 4.07385873e-03 -1.36672510e-02
    1.47986496e-02 -1.06100822e-02 -1.40086329e-02 -7.13874167e-03
    -8.48571770e-03 -8.81052669e-03 -5.77111216e-03 1.77055935e-03
    -6.40860666e-03 2.02381592e-02 2.33657565e-02 -1.33659141e-02
    -1.89085603e-02 9.49836615e-03 5.83680952e-03 2.82884948e-03
    -8.67514778e-03 -1.62435751e-02 -2.57844385e-02 2.26716511e-03
    -9.45116743e-04 -3.60765704e-03 6.57518627e-04 2.88329627e-02
    -1.37104280e-02 -2.34083403e-02 -2.12384481e-03 -4.19223234e-02
    -2.22120457e-03 -4.06645192e-03 -5.94584085e-03 1.12742204e-02
    -6.19078754e-03 -9.61383991e-03 1.67077277e-02 5.79801900e-03
    5.28013427e-03 -6.83222432e-03 8.49929918e-03 -2.11401954e-02
    5.93166146e-03 -3.25501747e-02 -2.12796219e-02 8.06533091e-04
    -2.40481626e-02 1.77379744e-03 1.14147123e-02 2.20237728e-02
    2.80816667e-02 1.51978317e-03 3.16266231e-02 -1.13888094e-02
    4.52734763e-03 1.12876063e-03 -1.06800999e-02 -3.67867723e-02
    -2.21654233e-02 -6.38241833e-03 4.68190908e-02 1.81041416e-02
    -9.01331007e-03 -8.99079721e-04 3.17703350e-03 -2.97139846e-02
    -1.69935580e-02 -2.11129021e-02 -1.93279644e-03 1.42934462e-02
    -4.47787112e-03 -5.68704866e-03 1.14391986e-02 1.57827456e-02
    5.63070141e-02 -7.76706403e-03 -6.37148600e-03 2.75607291e-03
    2.20421366e-02 -2.90139997e-03 6.37070183e-03 1.09161902e-02
    4.02612239e-02 -1.57418512e-02 1.04351426e-02 1.76026393e-02
    2.90547814e-02 1.72489919e-02 1.38558054e-04 -3.98733653e-03
    1.21129816e-02 1.28877973e-02 -7.76602421e-03 7.39049818e-03
    -9.87893064e-03 -1.51153328e-03 1.91173796e-02 3.28369439e-03
    -1.82935372e-02 -8.67066719e-03 2.31575761e-02 -1.73422229e-02
    1.15047600e-02 1.56703349e-02 2.18317713e-04 3.78624350e-02
    -4.64384630e-03 4.12178002e-02 2.26136856e-02 1.45264063e-02
    3.44954915e-02 1.92217231e-02 1.47370826e-02 3.47044580e-02
    -7.14563794e-05 -2.09376756e-02 -6.91480795e-03 2.96604331e-03
    1.70979965e-02 1.75648592e-02 9.10612196e-03 -1.77048817e-02
    -2.64036353e-03 -1.72791891e-02 2.86526904e-02 -7.64969504e-03
    -7.76713248e-03 2.37565953e-02 -2.22624000e-02 2.41029542e-02
    1.91540346e-02 -9.81865544e-03 3.09747551e-03 1.57216601e-02
    -2.74577085e-02 -2.45269369e-02 -7.26062572e-03 -8.79186671e-03
    3.48257124e-02 -2.69918218e-02 -1.28066074e-03 2.08615214e-02
    2.56925207e-02 1.45213790e-02 4.32168841e-02 4.39803749e-02
    -3.61225824e-03 1.68725215e-02 3.15669812e-02 5.68387099e-03
    1.86757855e-02 -8.76303948e-03 -2.09210906e-03 -8.48857313e-03
    -5.41825872e-03 -2.49695722e-02 -1.62162669e-02 -1.15732867e-02
    -8.88720714e-03 1.13949310e-02 3.55570316e-02 -2.13049706e-02
    7.12956768e-03 2.33029928e-02 -3.87027906e-03 3.15434448e-02
    9.89821646e-03 2.63584964e-03 5.03094494e-02 -2.53256876e-03
    -1.98725276e-02 -1.08188326e-02 -2.92040836e-02 -1.01389261e-02
    -7.24527240e-03 -3.33437808e-02 -1.77824255e-02 1.97914131e-02
    -1.01017039e-02 3.77304881e-04 3.28316400e-03 -7.29785068e-03
    4.51723393e-03 -2.37551089e-02 -1.64892823e-02 -5.44957537e-03
    4.15734062e-03 -6.94175324e-05 -1.69315469e-02 1.79904215e-02
    1.32944006e-02 8.57441314e-03 -2.67643798e-02 -3.97361582e-03
    -2.79399473e-03 -5.14272414e-03 3.20172347e-02 3.65175481e-04
    2.09779143e-02 -2.43689213e-02 -6.37496682e-03 3.85864591e-03
    1.97030557e-03 -7.80785875e-03 3.12499870e-02 1.81939360e-02
    -2.95615587e-02 -3.75261717e-02 -3.05216964e-02 4.81565809e-03
    -3.14501673e-02 9.71847493e-03 -6.75438251e-03 1.66313332e-02
    8.40022601e-03 -2.32460611e-02 1.54940886e-02 -2.60104239e-03
    1.91272777e-02 -2.41034273e-02 2.47970596e-02 -1.21944724e-02
    5.04146516e-03 -9.51754116e-03 -1.28511582e-02 2.10708790e-02
    1.27537139e-02 1.10826911e-02 -3.04239597e-02 -7.66243413e-03
    6.33178465e-03 -1.41055752e-02 1.07109910e-02 -1.52469352e-02
    3.87954921e-03 1.69045497e-02 8.81299097e-03 3.53354542e-03
    2.97575798e-02 -1.22266375e-02 -1.30368285e-02 -7.89893791e-03
    -4.53596981e-03 8.13141838e-03 2.67848428e-02 -3.33108865e-02
    -3.64602394e-02 -2.94820871e-03 1.10547384e-02 -9.95940901e-03
    -4.81127296e-03 1.74697153e-02 1.12558054e-02 2.05067452e-02
    1.48487370e-03 -4.96986322e-04 2.10946631e-02 2.06159130e-02
    -6.89748069e-03 1.54985359e-03 8.63373280e-03 1.72281377e-02
    5.59553504e-03 2.07936969e-02 6.01700274e-03 -7.94375781e-03
    -2.39494033e-02 -2.92032529e-02 -3.89343739e-04 -5.07017539e-04
    -7.28598144e-03 1.81890484e-02 -1.09045589e-02 -1.38099992e-03
    3.75511535e-02 4.47592586e-02 8.37956741e-03 -3.46295233e-03
    1.14962216e-02 3.53329442e-03 1.81836709e-02 2.84655858e-02
    6.29156223e-03 1.41618317e-02 -8.08856916e-03 -1.75591297e-02
    4.56025377e-02 -3.44009139e-02 -1.43888034e-02 -1.14852712e-02
    1.44451400e-02 -1.95380896e-02 9.83351190e-03 3.24310560e-04
    4.87678722e-02 2.20334623e-02 -2.22072918e-02 1.42473672e-02
    1.81706008e-02 -2.78894091e-03 -3.05446633e-03 2.85805408e-02
    2.29710154e-02 3.30867171e-02 7.95372855e-03 -2.74777282e-02
    -1.86680872e-02 -1.80783181e-03 -1.75729692e-02 -2.53519509e-02
    -2.36488134e-02 -1.18709793e-02 1.04344087e-02 -4.09448566e-03
    -3.43031250e-02 3.73309404e-02 -5.23659866e-03 1.95874069e-02
    -1.78121980e-02 -1.83846597e-02 -7.74832908e-03 1.60241816e-02
    -1.01115592e-02 -3.89175974e-02 -1.72420833e-02 -4.22670133e-03
    1.22816740e-02 2.46686884e-03 2.53459103e-02 -9.42107217e-05
    1.15580261e-02 7.17468048e-03 2.63054222e-02 9.20742657e-03
    1.27125215e-02 2.02038512e-02 3.25521305e-02 3.69267873e-02
    3.42748612e-02 1.32709974e-02 -2.02411655e-02 -4.97277342e-02
    5.03018498e-03 -2.48147082e-02 -3.00614908e-02 3.55139421e-03
    2.13955566e-02 4.07791557e-03 2.03144792e-02 4.10629204e-03
    -8.31228402e-03 -3.87790017e-02 1.85793415e-02 -1.06979329e-02
    -1.03968428e-02 -5.14961407e-03 1.88788921e-02 2.05681156e-02
    -1.75999161e-02 3.31633650e-02 2.27273498e-02 -1.36797279e-02
    -4.32401709e-02 1.34401880e-02 -4.83404379e-03 -2.09254958e-02
    -2.97041703e-02 -1.78617276e-02 -1.03779947e-02 2.15457883e-02
    1.32406084e-02 -1.66707020e-02 1.88464727e-02 2.93855742e-02
    6.66917339e-02 -1.13414638e-02 7.83418398e-03 7.83713441e-03
    1.63644720e-02 -2.18359362e-02 4.44079796e-03 3.84983723e-03
    -1.62567031e-02 -4.61748131e-02 6.85845735e-04 2.75782328e-02
    -1.43924616e-02 2.72071047e-04 -1.29536912e-02 2.41927942e-03
    1.81367323e-02 1.10700866e-02 -1.15931761e-02 2.46058265e-03
    -1.76875070e-02 -1.30089000e-02 -1.27782235e-02 5.39558055e-03
    -3.21211666e-02 -1.74413826e-02 1.34321558e-03 2.09531020e-02
    -2.37039663e-03 -3.92900929e-02 -3.16884108e-02 -5.90377999e-03
    -4.41515027e-03 1.97812598e-02 -2.61901994e-03 -7.05149909e-03
    1.01214992e-02 -1.16314450e-02 -1.12034483e-02 -1.75663214e-02
    -9.55647416e-03 -1.13009405e-03 9.51242540e-03 2.22456753e-02
    2.53512431e-03 -1.99611671e-02 -1.69476762e-03 -9.14255157e-03
    -3.67119350e-02 -4.53622565e-02 -1.91581305e-02 8.15279502e-03
    -5.74028585e-03 9.57216544e-04 1.10120010e-02 2.93115270e-04
    -1.97771490e-02 -6.29892992e-03 2.11543702e-02 2.74355616e-03
    2.44672429e-02 1.80355497e-02 -7.34970730e-04 -1.19020569e-03
    6.09960174e-03 -8.68450210e-04 -6.98995264e-03 -5.42801945e-03
    1.08189895e-04 1.34682795e-03 -1.04385102e-03 -8.68383143e-03
    -3.58770625e-03 1.25271722e-03 -1.13337645e-02 -1.25529487e-02
    -2.01928280e-02 -1.11424467e-02 2.18484681e-02 -3.15894336e-02
    -2.22886447e-02 -7.70707615e-03 -2.37550363e-02 9.98718478e-03
    -4.02677199e-03 -2.15117503e-02 -4.65960795e-04 1.97972655e-02
    -1.50328549e-02 -2.72397548e-02 -5.75004006e-03 -7.95745291e-03
    3.38318832e-02 1.22147463e-02 1.91517118e-02 1.46289878e-02
    1.21986021e-04 6.20223535e-03 1.84399821e-02 -1.04318615e-02
    -1.71923060e-02 1.20965755e-02 -3.89388367e-03 1.98300313e-02
    -9.73340962e-03 -3.20551433e-02 2.03708410e-02 -1.27782607e-02
    -1.81220248e-02 -2.57338397e-02 1.03162900e-02 1.15859527e-02
    5.12418849e-03 5.24865370e-03 2.16234615e-03 -1.25768296e-02
    -1.12426663e-02 3.50568071e-03 1.31090789e-03 -2.74504861e-03
    -5.69013553e-03 -2.88804453e-02 -4.09929827e-02 -4.48306382e-04
    1.19685614e-03 -1.55065935e-02 6.17200602e-03 -9.16635618e-03
    3.16948257e-02 1.43672377e-02 1.91948954e-02 2.02857032e-02
    3.00607253e-02 1.05193844e-02 1.18285650e-03 -2.33311504e-02
    -2.34706863e-03 -1.03234537e-02 -3.26038860e-02 -1.53352099e-03
    7.57842558e-04 4.02576029e-02 -1.36363395e-02 5.32590644e-03
    -2.52110958e-02 -1.12053938e-02 8.27044435e-03 4.47501428e-02
    -2.18538884e-02 2.86558084e-02 8.28476157e-03 1.04821334e-02
    5.83875284e-04 6.26402954e-03 -2.82201078e-02 -1.04273390e-02
    -3.31943482e-02 -5.53504489e-02 -2.91057099e-02 -9.45973303e-03
    -1.24744372e-02 -6.06549074e-05 -1.95702631e-02 -4.99471575e-02
    -4.36724676e-03 -3.04944925e-02 1.52973877e-02 1.99056957e-02
    1.19156651e-02 3.32221389e-02 1.38907563e-02 -2.00599395e-02
    -3.06660077e-03 1.14968084e-02 -3.01292296e-02 -1.49786379e-02
    -1.02211339e-02 2.21178178e-02 -1.23874014e-02 -3.91032035e-03
    -2.19354834e-02 1.62646715e-02 -1.26114124e-02 -4.46096659e-02
    -2.52259281e-02 1.88371595e-02 1.46679045e-03 3.85426320e-02
    9.72284470e-03 -4.08724323e-02 -2.17249244e-02 -1.43331653e-02
    -2.75214259e-02 -4.04388178e-03 -1.60475820e-02 4.59391065e-02
    1.35550695e-03 -3.45883914e-03 -4.24186811e-02 -2.01113964e-03
    1.52524225e-02 -7.68316910e-03 -4.03541839e-03 -8.26814771e-03
    2.87900195e-02 2.07776017e-02 3.15462835e-02 -1.95209384e-02
    2.41189171e-02 -2.51294230e-03 -7.33788311e-03 9.12646763e-03
    -1.49982492e-03 -2.34732428e-03 -1.54486485e-02 -1.03104766e-02
    -5.59454132e-03 8.05713644e-04 8.61152541e-03 -7.54915178e-03
    1.54363355e-02 -3.76221649e-02 -8.25486612e-03 2.07650512e-02
    2.91123521e-02 -3.59971337e-02 1.73259173e-02 -2.11528353e-02
    3.53606977e-03 4.13551666e-02 -1.73166711e-02 -2.49203034e-02
    3.36781214e-03 2.02747546e-02 7.34078325e-03 -1.30585367e-02
    -7.84058124e-04 -3.10277916e-03 5.53854648e-03 4.15056162e-02
    4.02976684e-02 3.55665013e-02 4.16167602e-02 3.10346596e-02
    1.98487360e-02 -3.02527789e-02 -2.01442316e-02 1.73226895e-03
    3.34535912e-02 6.23923428e-02 3.06487107e-03 9.74489842e-03
    -1.26396888e-03 -2.30958704e-02 -1.05280522e-02 -1.40647665e-02
    1.24464147e-02 3.24541070e-02 -2.61171721e-02 2.05650609e-02
    1.80187281e-02 1.36743532e-02 1.00682778e-02 -1.35398824e-02
    -6.38748379e-03 -3.21561769e-02 4.37363610e-02 8.64455849e-03
    -1.29818171e-02 -1.26272282e-02 -3.32810357e-02 -2.92506311e-02
    5.93858911e-03 -2.79287156e-02 -4.43420000e-02 -3.13879852e-03
    1.62525624e-02 9.94749251e-04 -2.33188886e-02 -1.43934637e-02
    2.31220499e-02 3.75350751e-02 -1.55739058e-02 1.69449858e-02
    1.26630208e-02 3.10361106e-02 -3.57092032e-03 -4.31339908e-03
    2.24139504e-02 4.51721139e-02 5.86217362e-03 -6.41763955e-03
    -4.62223019e-04 3.42100789e-03 3.28420624e-02 3.70269343e-02
    -1.97464097e-02 -2.26880591e-02 -2.10768296e-04 -6.42243947e-04
    -7.54312752e-03 -2.44093183e-02 1.61509477e-02 -2.31556091e-02
    9.41135548e-03 -1.92096643e-02 -6.73263287e-03 5.30891540e-03
    9.52721480e-03 -3.18158492e-02 -7.94298388e-03 -3.76862586e-02
    -1.41151331e-03 -2.16590390e-02 -1.50206322e-02 8.26118793e-03
    4.94700968e-02 3.89366187e-02 -4.04707901e-03 -1.76910253e-03
    3.38537395e-02 1.69459805e-02 4.96625341e-03 1.64907658e-04
    4.32885140e-02 5.86450286e-02 -1.93502591e-03 -1.13091618e-02
    -1.36743607e-02 -2.33156234e-02 -5.96195692e-03 -1.21095916e-02
    -3.35980207e-02 -6.48369873e-03 4.31328546e-03 1.08729023e-02
    1.36902360e-02 1.26346042e-02 3.11275013e-02 1.53994747e-02
    7.25112110e-03 9.20391548e-03 4.51633036e-02 1.30208656e-02
    4.05699154e-03 -2.25633848e-02 -7.25141552e-04 -6.32163743e-03
    5.93396230e-03 -3.32785547e-02 -5.86570799e-03 -1.70267001e-02
    7.67084397e-03 2.46696565e-02 -2.24863049e-02 1.52810151e-02
    1.13731474e-02 1.41898058e-02 7.49632344e-03 3.32254656e-02
    2.57223714e-02 1.46600213e-02 2.94450042e-03 -1.85677707e-02
    2.46026441e-02 2.67838892e-02 -2.04752758e-03 -1.36452885e-02
    -8.32818623e-04 2.26827916e-02 1.97865777e-02 1.52100138e-02
    4.23347484e-03 -1.16709014e-02 1.84022486e-02 -3.37464809e-02
    -3.02105583e-03 1.58215147e-02 1.93195920e-02 -2.62648915e-03
    -5.45383105e-03 -2.54017580e-02 -1.62357707e-02 -1.10939145e-02
    -2.29094792e-02 5.96137298e-03 9.74382274e-03 -4.14399384e-03
    1.93811897e-02 -1.83346594e-04 -3.52481641e-02 -2.19216868e-02
    -3.64951715e-02 3.36741321e-02 -5.70477059e-05 2.87275556e-02
    2.89649889e-02 1.42810633e-02 -1.01649053e-02 1.27691785e-02
    -2.82010362e-02 -1.04216784e-02 -3.35869081e-02 6.97108731e-03
    4.11254866e-03 -7.20524602e-03 -1.04361745e-02 5.47128217e-03
    -2.36358661e-02 -4.30276729e-02 -9.67644621e-03 -3.47841047e-02
    -3.53108421e-02 -2.01346986e-02 -9.34963755e-04 1.41723100e-02
    4.89330897e-03 -8.80641025e-03 2.48059235e-03 -6.16618432e-03
    1.11432886e-02 -8.05618614e-03 2.36465875e-02 -5.12222014e-03
    -6.79386128e-03 -4.75885393e-03 -1.88458003e-02 -1.32899042e-02
    5.50220814e-03 2.59329136e-02 4.46153386e-03 -6.27977075e-03
    5.92733454e-03 9.57343262e-03 1.49536449e-02 1.17463677e-03
    2.11109500e-02 9.87028051e-03 -3.13819535e-02 -7.31037639e-04
    3.16336975e-02 1.71656292e-02 2.02455334e-02 -1.10796280e-02
    -2.33859532e-02 -1.29917189e-02 -1.97810102e-02 -1.47324549e-02
    -3.29495873e-03 -1.45781459e-02 -2.09303759e-02 3.41567560e-03
    1.64469276e-02 1.98548213e-02 2.20653303e-02 -2.15079496e-03
    2.10366100e-02 4.43885615e-03 7.04740454e-03 6.72711013e-03
    1.57668144e-02 1.70969274e-02 -4.24905913e-03 -2.17256006e-02
    -4.66326214e-02 -8.15395638e-03 2.07521976e-03 6.00132579e-03
    2.62735109e-03 -1.20819025e-02 -1.12508815e-02 7.97448028e-03
    2.12219376e-02 8.42694938e-03 -1.49987489e-02 1.14252008e-02
    2.78437603e-03 9.33298666e-04 1.66839117e-03 -6.07265532e-03
    3.59132746e-03 -6.05182117e-03 -1.50636956e-02 -2.99370717e-02
    3.88367684e-04 -8.10669269e-03 1.50494538e-02 -2.14418173e-02
    3.10895257e-02 1.16018923e-02 -3.91363390e-02 -2.52495576e-02
    -1.42266350e-02 -1.97743066e-02 5.28767426e-03 7.94381835e-03
    3.80111299e-03 3.44619155e-02 -1.07010882e-02 -2.62423828e-02
    -3.82825024e-02 -1.94177888e-02 -3.21525261e-02 -1.62656549e-02
    5.70210302e-03 1.02130172e-03 1.14793414e-02 -7.07855728e-03
    -1.79119571e-03 7.76382769e-03 3.70443170e-03 2.72533838e-02
    -1.12617761e-02 5.41333342e-03 -3.27987857e-02 1.92164890e-02
    2.72441725e-03 -6.65688561e-03 2.31680479e-02 -5.00223562e-02
    -1.93611570e-02 -2.29493510e-02 -2.01518256e-02 -7.08085578e-03
    1.10312663e-02 -1.28719667e-02 -7.06502251e-05 3.50511004e-03
    6.77618058e-03 8.70919414e-03 7.70322839e-03 -3.42569463e-02
    -8.78972095e-03 -1.31800212e-02 -1.69899557e-02 2.06881421e-04
    -1.00129060e-02 2.89737340e-02 2.10887403e-04 -5.62745938e-03
    -6.30980507e-02 -2.61048917e-02 3.60553376e-02 -4.42675203e-02
    1.24357268e-02 2.48988327e-02 -4.15563211e-02 -8.58467259e-03
    2.59206481e-02 -1.00815354e-03 1.87049769e-02 -1.80239906e-03
    -3.83119881e-02 8.09071702e-04 -3.92926624e-03 1.69891696e-02
    -7.43898749e-03 5.10341115e-03 -6.06317483e-02 -1.99025683e-02
    1.57804713e-02 3.00586037e-03 1.73799079e-02 -2.46427543e-02
    5.78217953e-02 1.56072881e-02 1.73871256e-02 -3.72441784e-02
    -9.80184693e-03 -1.20679215e-02 1.64940290e-03 3.36635709e-02
    3.78409177e-02 3.62901762e-02 5.30763413e-04 -1.83620192e-02
    -2.86383219e-02 -1.39918523e-02 3.45097594e-02 -9.51850870e-06
    1.48038855e-02 2.82638823e-03 4.22293134e-02 -2.16932409e-02
    -1.76749472e-02 -4.72688079e-02 4.42889892e-03 3.48444358e-02
    -1.35459062e-02 -1.13288518e-02 8.20627995e-03 -1.00089796e-03
    -9.07019712e-03 -2.84983311e-02 -4.65340018e-02 2.10898351e-02
    1.34799341e-02 7.21700396e-03 5.41919097e-03 4.81404252e-02
    4.03232835e-02 5.44492677e-02 2.05255467e-02 4.22445079e-03
    2.32392866e-02 8.43406748e-03 1.37794912e-02 -1.61597542e-02
    4.24177535e-02 3.18800174e-02 3.16094644e-02 -1.99172669e-03
    -8.76741763e-03 -2.08056197e-02 2.37696320e-02 1.08457264e-02
    2.06935387e-02 5.18024527e-02 5.50992787e-04 2.01774482e-02
    4.30148502e-04 -1.20671717e-02 2.52311584e-02 2.14868411e-02
    1.36937415e-02 3.11564002e-02 8.72186497e-02 3.88528034e-02
    5.89013426e-03 -1.73570234e-02 -1.68260690e-02 -1.00121479e-02
    -8.61061551e-03 -8.71536415e-03 4.61513689e-03 2.61065620e-03
    -4.85085603e-03 4.17290181e-02 -3.03651788e-03 -1.46704270e-02
    -8.05917662e-03 6.42071432e-03 -6.42808340e-03 4.86563286e-03
    3.04565113e-02 2.17838641e-02 1.69127397e-02 2.39147861e-02
    5.63393068e-03 2.52717547e-02 -1.04866028e-02 -1.51750296e-02
    -5.10604493e-03 -1.93123776e-03 -2.55341884e-02 -1.28601473e-02
    -1.35139702e-02 4.77751205e-03 1.54522969e-03 1.39219463e-02
    -6.63333805e-03 -2.38742940e-02 -9.43240803e-03 -1.66448054e-03
    -2.61533912e-02 -3.43487971e-02 -1.60789154e-02 1.65875144e-02
    -2.03410499e-02 -2.89502703e-02 -3.84214409e-02 -4.42668051e-03
    -1.52725419e-02 1.98688656e-02 1.70340447e-03 -1.67585090e-02
    -1.16160489e-03 3.25759836e-02 4.68285987e-03 2.42890902e-02
    3.13530415e-02 -3.28625320e-03 3.66264489e-03 3.71053070e-02
    2.84479577e-02 4.78256047e-02 -1.87795088e-02 -3.12783569e-02
    -2.13697068e-02 -7.42808310e-03 -5.31558739e-03 9.71836597e-03
    -1.77439619e-02 -7.88054708e-03 -1.05850305e-02 -1.58021762e-03
    2.23260652e-02 5.41255530e-03 4.10232227e-03 -1.40577499e-02
    3.10217636e-03 1.11501268e-03 -3.28388042e-03 -1.34687908e-02
    2.24812590e-02 -1.77604537e-02 6.71143993e-04 1.16177378e-02
    1.50839034e-02 -1.90728661e-02 2.69945748e-02 -4.25300654e-03
    4.45458703e-02 1.77278444e-02 7.41215935e-03 2.01833267e-02
    2.05994397e-02 3.65074165e-03 -1.53849246e-02 4.50165458e-02
    3.60646285e-03 2.03774311e-02 1.83675345e-02 -2.59500984e-02
    -1.93155948e-02 -1.24829309e-02 -2.72439290e-02 1.24980707e-03
    8.32848810e-03 -3.20597291e-02 1.41362585e-02 -6.05634833e-03
    -1.45879788e-02 -1.36301736e-03 8.24444182e-03 -5.84648624e-02
    -1.75738856e-02 -1.51282176e-02 -3.54249100e-03 -1.54887544e-04
    -1.57516804e-02 1.30518852e-02 8.08431953e-03 2.30572801e-02
    2.14393204e-03 -3.00130900e-02 -6.96089352e-03 -4.14193273e-02
    -6.91498769e-03 1.10710431e-02 -1.11024380e-02 1.22804884e-02
    5.37798367e-03 -1.03314118e-02 -1.68174598e-02 2.60605942e-02
    1.27790002e-02 1.13695078e-02 -4.50225137e-02 -8.63725843e-04
    3.35326679e-02 -1.14024933e-02 1.40103493e-02 1.21368524e-02
    -1.26274908e-02 -2.42806859e-02 -4.30159643e-03 -3.69487964e-02
    -2.22313218e-02 -6.21152017e-03 -2.69670133e-02 -2.99011543e-02
    -2.23773364e-02 9.76509473e-05 -1.64298117e-02 -3.41017097e-02
    4.62629786e-03 -7.41375657e-03 4.49369065e-02 -6.64468855e-03
    -1.17120724e-02 -2.33363658e-02 4.69296537e-02 -4.09949757e-03
    1.31460307e-02 1.43777197e-02 -2.64711399e-02 -7.03896210e-03
    -1.75891712e-03 -6.64437190e-03 -1.29494409e-03 3.12616043e-02
    4.64984775e-03 1.64766051e-02 -2.72831488e-02 -5.69702685e-02
    8.79416056e-03 -4.44889627e-02 -4.84508201e-02 -5.73284272e-03
    7.29109067e-03 1.65911410e-02 -2.26982050e-02 -4.06430960e-02
    -5.04731573e-02 -7.75938714e-03 -1.03823021e-02 -3.75026762e-02
    -2.97891572e-02 -3.00835189e-03 1.62623934e-02 -1.76735893e-02
    1.44164236e-02 6.33043796e-03 1.72042251e-02 3.24796587e-02
    -1.98780354e-02 -1.55359730e-02 8.91024154e-03 1.35462154e-02
    1.59387030e-02 -3.82237812e-03 1.41322771e-02 2.29135454e-02
    2.22148541e-02 -9.02749039e-03 -1.86114032e-02 -2.77899113e-02
    2.73818076e-02 2.48792786e-02 3.91580630e-03 -1.25072738e-02
    2.43198443e-02 1.44488225e-02 1.48713053e-03 -1.35280006e-02
    6.46679662e-03 -2.50971090e-04 1.58771803e-03 -2.49746852e-02
    -3.67154703e-02 -4.93528768e-02 -1.67805441e-02 -1.91929862e-02
    -4.43631411e-02 -5.07234372e-02 1.93169992e-02 -3.19840014e-02
    6.47997716e-03 -2.38403073e-03 1.79773383e-02 3.37924398e-02
    6.88745230e-02 -5.82894078e-03 6.56379247e-03 1.32465996e-02
    -6.15582243e-03 -3.46581242e-03 -2.97521502e-02 -5.49986586e-03
    2.62299459e-02 -5.42312535e-03 -4.16014269e-02 -6.12877076e-03
    -2.48755720e-02 -9.89383925e-03 1.11581357e-02 1.26680490e-02
    1.89432856e-02 2.38889921e-02 -1.43518299e-02 -2.48463545e-02
    -3.16955782e-02 7.25438772e-03 8.78561381e-03 -1.30212884e-02
    -1.19967014e-02 -1.60447583e-02 -7.55286403e-03 -1.87745914e-02
    -3.41169685e-02 1.93272438e-02 -1.64264943e-02 -3.97785604e-02
    8.99896771e-03 -2.51910985e-02 1.42395245e-02 3.48681137e-02
    -3.02933306e-02 2.15023607e-02 3.91285866e-02 -6.52661594e-03
    1.28316395e-02 -1.33180404e-02 -3.82849947e-02 1.82342296e-03
    1.72537065e-03 2.23902781e-02 1.02559207e-02 3.38082202e-02
    -7.18490686e-03 2.10322882e-03 8.52193683e-03 1.44490106e-02
    2.84417141e-02 -5.25665283e-03 -2.83151846e-02 1.62219033e-02
    4.74390052e-02 1.44794481e-02 -2.42906925e-03 -1.14865424e-02
    7.89241772e-03 2.25508902e-02 2.77463696e-03 2.90353782e-02
    -4.79179919e-02 -1.25539871e-02 -1.65677834e-02 1.29073951e-02
    1.04823206e-02 -5.30097028e-03 1.02925142e-02 -5.09097101e-03
    2.00866926e-02 9.97416675e-04 2.42052716e-03 -2.20936239e-02
    3.11211939e-03 3.88478488e-02 7.23257253e-04 2.18499061e-02
    1.08160661e-03 2.46484354e-02 3.41082551e-02 1.13170845e-02
    -8.61372147e-03 3.84324715e-02 2.66645942e-03 3.67144588e-03
    1.56798232e-02 -3.35181169e-02 -4.85694455e-03 -3.81951071e-02
    1.98123325e-03 -7.67528452e-03 4.69722878e-03 2.41707526e-02
    4.35856730e-03 -7.88042229e-03 -5.98192634e-03 -1.67401172e-02
    3.71564180e-02 -1.42155895e-02 -1.09344507e-02 2.21147370e-02
    1.93504859e-02 8.04031175e-03 3.99322845e-02 3.34516279e-02
    4.56216745e-02 2.43015792e-02 2.69642454e-02 4.83789295e-03
    2.57847533e-02 -2.13125069e-02 -2.42407098e-02 1.78161301e-02
    4.49516363e-02 5.91071509e-02 -3.49334367e-02 -2.98809204e-02
    -2.31842548e-02 -2.90559977e-02 3.43369879e-02 6.95550628e-03
    2.08697375e-02 3.05539649e-02 4.38058637e-02 2.96536759e-02
    4.35572863e-03 -2.00831564e-03 2.92756762e-02 -2.96813846e-02
    -2.52453564e-03 1.62212569e-02 5.01841456e-02 2.43842844e-02
    2.00252868e-02 7.39846425e-03 5.19693084e-03 -1.17158173e-02
    -1.53065594e-02 -1.01691782e-02 -6.83809957e-03 1.27630923e-02
    2.32835673e-03 4.08419222e-03 -8.69233441e-03 -1.73576120e-02
    1.15004424e-02 -1.45509094e-03 6.52620150e-03 1.15262903e-03
    2.57420819e-02 5.21698520e-02 2.64305086e-03 -7.32540712e-03
    6.42532064e-03 2.44960785e-02 -1.16476966e-02 -3.21708433e-02
    -1.41273756e-02 -3.70800239e-03 -2.82068159e-02 -1.77850686e-02
    -1.21945208e-02 -2.14600563e-02 -6.23019354e-04 9.58122406e-03
    -1.09371655e-02 -3.30240605e-03 5.83921465e-05 2.60609053e-02
    -7.78350886e-03 -1.77734457e-02 -1.43957135e-04 7.30704097e-03
    -3.42647023e-02 -3.28050479e-02 -2.81340405e-02 -3.43979872e-03
    -2.52822600e-03 9.40557383e-03 1.03932340e-02 1.33266868e-02
    -1.04464833e-02 6.75897719e-03 5.98003762e-03 5.52162621e-03
    3.21931653e-02 7.47914985e-02 4.24052216e-02 6.03823289e-02
    4.34154607e-02 1.71567705e-02 -3.24329361e-02 -1.25409178e-02
    -2.17842869e-02 -2.66194418e-02 -1.26622487e-02 -1.06586423e-02
    -3.48510258e-02 -2.19721105e-02 -4.08103429e-02 -4.25725011e-03
    2.63601216e-03 -4.22883071e-02 8.12439341e-03 -1.12825558e-02
    3.30221932e-03 -3.97383189e-03 -1.83396116e-02 -3.57546173e-02
    -1.48077523e-02 -3.44928727e-02 -2.10753661e-02 -9.28393845e-03
    2.32793353e-02 1.92142781e-02 -4.46957210e-03 -2.91121081e-02
    -3.09394766e-03 1.46387601e-02 -6.17467612e-03 1.75364818e-02
    3.13014630e-03 3.63905206e-02 2.99375597e-02 1.95886400e-02
    5.11357300e-02 4.18729894e-02 8.34111299e-04 -2.74456795e-02
    -1.95027553e-02 -2.18453873e-02 -1.70312133e-02 1.39440624e-02
    6.75155874e-03 -5.30502535e-02 1.62703879e-02 -1.26458788e-02
    -2.01885458e-02 -5.60740940e-02 -6.42100675e-03 -4.00406830e-02
    2.10655406e-02 -1.84278879e-02 -9.16291680e-03 -1.62020267e-03
    -2.61214245e-02 1.14532523e-02 5.92507236e-03 -2.20094137e-02
    1.03311036e-02 2.33202390e-02 1.49880154e-02 1.12288166e-02
    1.94316320e-02 -4.75932173e-02 1.16257872e-02 3.64537872e-02
    3.25503224e-03 5.57030831e-03 -8.24932940e-03 3.46226618e-02
    4.71946448e-02 2.65797973e-03 1.71496123e-02 1.26298731e-02
    -1.80671981e-03 2.90914648e-03 -3.02401595e-02 -1.64524503e-02
    -3.95735316e-02 1.21636153e-03 2.69982424e-02 -2.47307103e-02
    1.26094176e-02 3.02414708e-02 2.15342846e-02 -1.78971644e-02
    -5.73633350e-02 -3.65652181e-02 2.79600266e-02 1.76063050e-02
    -9.53918602e-03 -2.65709087e-02 -4.50483710e-03 -1.70630254e-02
    -2.26917956e-02 -2.06311010e-02 7.22498959e-03 4.14852425e-02
    1.65259037e-02 -7.73119461e-03 -2.47767214e-02 1.99278034e-02
    1.01964138e-02 -8.46689846e-03 -1.62974969e-02 5.73997968e-04
    3.24904248e-02 3.69444191e-02 -2.71709673e-02 -1.01229586e-02
    -1.62688212e-03 -1.41482800e-02 9.96608380e-03 -1.55306784e-02
    -1.46817761e-02 1.79187935e-02 2.03064997e-02 -1.80984214e-02
    4.47927928e-03 -1.54130505e-02 1.68453879e-03 1.88192390e-02
    -2.85415389e-02 -3.32948305e-02 5.12474729e-03 -2.87013431e-03
    -2.42925342e-02 1.25690354e-02 3.00811790e-02 3.78594026e-02
    3.74248438e-02 1.54176634e-03 -2.21216446e-03 -1.26387756e-02
    -6.49816217e-03 -1.41030792e-02 -8.47407710e-03 -4.29743417e-02
    1.06573096e-02 1.49505017e-02 1.18430573e-02 -1.26892305e-03
    6.76409379e-02 1.15946373e-02 -1.88555159e-02 2.89247818e-02
    5.02627483e-03 7.62248831e-03 3.95694701e-03 -9.81477555e-03
    -4.92450176e-03 1.30632892e-02 -2.52705924e-02 -3.16823758e-02
    7.83913583e-03 1.32541964e-02 8.47064331e-03 -2.52287965e-02
    -2.09994279e-02 -2.00415906e-02 -1.23691875e-02 -3.59248109e-02
    7.95181550e-04 1.83786862e-02 2.52965149e-02 4.31838259e-03
    2.59362161e-02 -5.19941701e-03 3.89172509e-03 3.13805155e-02
    2.07841061e-02 -7.38242548e-03 2.36156560e-03 -3.71869467e-03
    2.12697242e-03 -6.04804698e-03 -3.07820807e-03 6.49277819e-03
    -8.58125743e-03 -1.33395679e-02 -9.50451382e-03 1.73057895e-02
    1.59946624e-02 -5.47969528e-03 -3.12102567e-02 -1.94675978e-02
    -1.71650760e-02 -4.07301867e-03 -1.01597253e-02 -1.72154941e-02
    2.83193346e-02 -1.90300811e-02 -2.66827587e-02 -2.64116321e-02
    -2.05347501e-02 -2.21576914e-02 1.07900398e-02 -2.80406494e-02
    -9.40873171e-04 1.36600090e-02 1.78336969e-03 2.19374765e-02
    2.10660137e-02 2.79359259e-02 4.20027375e-02 2.49492824e-02
    5.63534815e-03 1.86414830e-02 2.52619032e-02 -5.71404351e-03
    1.88698843e-02 5.32578975e-02 -3.58101055e-02 -2.70978007e-02
    -2.79572816e-03 2.34557390e-02 -3.34336683e-02 -4.74073645e-03
    -1.07840374e-02 1.14010591e-02 -2.79000010e-02 9.34144668e-03
    7.05873081e-03 1.86354332e-02 -3.23454961e-02 3.92503396e-04
    1.15306405e-02 -2.52000839e-02 -4.84670978e-03 -2.51877736e-02
    -1.71799138e-02 -3.88380215e-02 -1.51542714e-02 6.57355692e-03
    -1.18953595e-02 1.50654847e-02 -1.46939717e-02 -2.25790087e-02
    3.39283422e-02 -3.09869219e-02 7.92835094e-03 -3.11301672e-03
    3.17742029e-04 -2.21315846e-02 -4.76622675e-03 5.69248587e-05
    -1.53823430e-03 -2.02695671e-02 1.60705205e-02 -2.13823635e-02
    -1.51066147e-02 9.43275634e-03 1.40501820e-02 3.36172767e-02
    2.04235245e-03 -2.21774988e-02 -4.92417603e-04 -1.84273515e-02
    8.46111029e-03 4.69691679e-03 9.27164685e-03 1.98235959e-02
    1.42023554e-02 -2.12556287e-03 2.03793831e-02 -2.97430288e-02
    2.81157847e-02 -4.10615318e-02 5.16921189e-03 9.10056848e-03
    2.63146479e-02 6.49250066e-03 2.77641341e-02 3.57746147e-02
    6.17053322e-02 8.64842907e-03 3.58281680e-03 -2.50823516e-02
    2.46039629e-02 -2.41706800e-02 -4.54805046e-03 1.66002102e-02
    4.43362333e-02 6.54203445e-02 -1.58164767e-03 3.59056029e-03
    -1.30390180e-02 -1.18982010e-02 9.73984832e-04 3.49157979e-03
    3.87246236e-02 3.36136930e-02 -4.61712293e-03 1.70964058e-02
    -1.28434887e-02 -2.40193754e-02 -2.60343663e-02 -1.13275703e-02
    -1.13590406e-02 2.11642347e-02 7.85912797e-02 3.99323180e-02
    2.50103474e-02 1.96679756e-02 5.76050300e-03 -1.23443780e-02
    3.59121943e-03 6.69335760e-03 1.43831586e-02 -4.10621474e-03
    -5.74077815e-02 -4.33711149e-02 -2.70166062e-03 7.42126768e-03
    1.45806950e-02 -1.57291489e-03 -2.35328823e-02 1.61362030e-02
    -2.68391334e-03 2.20907293e-02 2.93032397e-02 2.39831060e-02
    2.51595732e-02 1.71888005e-02 -5.25840500e-04 -1.32782117e-03
    2.19309097e-03 -2.76924912e-02 -1.16660856e-02 4.41295952e-02
    6.12912327e-03 2.71436777e-02 1.90123497e-03 -3.47842388e-02
    -2.78464667e-02 -3.31021361e-02 1.36093954e-02 -1.05572352e-02
    2.24954523e-02 -2.93226019e-02 -1.99403968e-02 -2.01524403e-02
    -1.52979372e-03 -6.75856322e-03 -6.04376709e-03 -3.03883161e-02
    -1.39234839e-02 -8.52604862e-03 -8.34644306e-03 -3.72891873e-03
    -3.12740495e-03 2.30178963e-02 2.32432485e-02 1.14030456e-02
    -3.96738434e-03 4.86550061e-03 -8.95228982e-03 4.73825168e-03
    7.99554400e-03 7.62284407e-03 -2.98843887e-02 -1.17108701e-02
    -7.51454988e-03 1.15452334e-02 -4.35720049e-02 -4.08641389e-03
    -2.12545451e-02 -3.44224907e-02 -2.27023773e-02 -2.35619601e-02
    1.07712653e-02 1.24748666e-02 1.38918562e-02 -1.75270587e-02
    2.38177762e-03 -1.18142250e-03 -1.26157738e-02 -1.85239371e-02
    1.21545268e-03 -1.33992145e-02 -5.64452372e-02 -3.77328768e-02
    -6.82296557e-03 -1.67147405e-02 1.37458090e-02 -3.47211398e-02
    3.44839273e-03 2.49609258e-02 2.29299329e-02 -1.67232640e-02
    2.16041040e-02 2.84471568e-02 2.48521082e-02 7.32539920e-03
    1.04333889e-02 -2.34615814e-04 -2.83702724e-02 -1.95302255e-02
    -4.64079231e-02 -4.27649580e-02 -1.19038839e-02 -1.64537523e-02
    2.99764946e-02 1.79724395e-02 -1.88429281e-02 -1.69211030e-02
    1.90009139e-02 -1.60599165e-02 -3.15524871e-03 -2.42384821e-02
    -1.13176391e-03 6.88391365e-03 2.74546575e-02 -1.53443981e-02
    -1.59657169e-02 2.48756483e-02 1.69786047e-02 4.76062385e-04
    -4.24879827e-02 -5.01523502e-02 -4.75678854e-02 1.62941199e-02
    1.99455954e-03 -9.59055033e-03 1.65463537e-02 5.36340922e-02
    3.14252777e-03 -9.95193049e-03 -2.05714516e-02 -1.10061246e-03
    5.08729964e-02 3.71326096e-02 -3.57663520e-02 3.58982682e-02
    1.00765154e-02 -2.56602522e-02 -2.92075351e-02 -1.83560792e-02
    -4.56599891e-02 1.65326428e-02 -2.45560594e-02 1.43457553e-03
    1.55146644e-02 -6.55668438e-04 1.72896571e-02 5.46746934e-03
    1.32945329e-02 -3.54088880e-02 7.57868495e-03 -2.02791393e-02
    -1.74185652e-02 -1.22608421e-02 1.86861551e-03 -7.35207042e-03
    2.34533139e-02 -1.81844160e-02 -1.60903987e-02 -5.83411381e-03
    2.68114079e-02 2.58955453e-03 1.53400516e-02 4.69558127e-03
    5.46069583e-03 3.60890292e-02 -1.85732041e-02 8.79631285e-03
    4.67054844e-02 2.50522159e-02 -2.44525857e-02 -5.75503055e-03
    -7.85874482e-03 -9.70751606e-03 2.84351222e-02 -5.04321139e-03
    -1.34868855e-02 9.85867344e-03 -9.84114222e-03 -2.07573194e-02
    2.13873796e-02 -2.57017761e-02 -2.95305569e-02 -1.20138051e-02
    -2.94946209e-02 -5.45195639e-02 -1.89429261e-02 -2.05445886e-02
    1.60177203e-03 1.67414527e-02 2.69579841e-03 -1.82567947e-02
    1.54395960e-02 -2.43935958e-02 7.58252479e-03 1.96553785e-02
    -1.81679020e-03 2.82376297e-02 1.65213868e-02 3.67499813e-02
    -6.09148014e-03 1.50916576e-02 -3.20265405e-02 1.55408995e-03
    4.77628447e-02 3.33445519e-02 -2.21175607e-02 2.47200914e-02
    -3.81683162e-03 -6.28708769e-03 -7.10028363e-03 6.10238733e-03
    -3.29727381e-02 -1.64072891e-03 -2.58863401e-02 -1.75297391e-02
    3.65378539e-04 -1.25360191e-02 -1.91637091e-02 -2.81158313e-02
    -2.44103149e-02 -4.03106622e-02 4.93572233e-03 -1.13943908e-02
    1.49054150e-03 2.22104173e-02 2.32363082e-02 2.84514260e-02
    3.60303372e-03 -2.25948617e-02 7.70157250e-03 2.19468046e-02
    2.27902811e-02 -1.56994853e-02 -4.48036287e-03 -2.22223252e-02
    3.09504592e-03 1.86863020e-02 2.76628695e-02 9.01023950e-03
    5.81733100e-02 -1.09306416e-02 6.06830232e-03 1.40843317e-02
    6.08341652e-04 -9.80314147e-03 -2.65482310e-02 -5.60598739e-04
    -6.52781455e-03 2.17918283e-03 9.36652767e-04 -2.75980383e-02
    -1.53301063e-03 -3.66557315e-02 1.21320980e-02 -1.22427391e-02
    -2.21165475e-02 -1.36629329e-03 1.41623970e-02 -3.50867212e-02
    -5.46322204e-02 1.20076332e-02 2.47804690e-02 4.19657379e-02
    1.58553571e-02 5.36942342e-03 2.95737218e-02 5.04001603e-03
    -5.41911200e-02 -3.05947233e-02 2.92922114e-03 6.79336162e-03
    4.23892122e-03 2.26259381e-02 7.04954565e-03 -1.59319881e-02
    3.73248220e-03 -2.63016741e-03 -5.34752011e-03 4.88118865e-02
    2.44037323e-02 3.15891244e-02 1.43964337e-02 -2.06082668e-02
    -1.07018054e-02 1.07335290e-02 -2.29913257e-02 -7.78426928e-03
    4.87670302e-02 -7.58108823e-03 1.13035161e-02 4.85013798e-03
    -2.74987537e-02 -1.88591834e-02 3.33860517e-02 -2.50894744e-02
    1.29772117e-02 1.62437707e-02 -5.73051348e-03 -3.41112865e-03
    1.04031255e-02 -2.73025483e-02 1.38593456e-02 2.77364557e-03
    2.44944338e-02 -1.80187989e-02 -1.32091679e-02 -3.87743721e-03
    1.76371075e-02 -2.17614286e-02 5.18067798e-04 -4.16321084e-02
    -2.39751581e-03 -2.33282726e-02 1.71814568e-03 3.02580073e-02
    1.98277528e-03 4.09259237e-02 -2.97433510e-02 -3.44793089e-02
    -9.78745613e-03 2.87457500e-02 5.69402357e-04 5.57985215e-04
    5.37772803e-03 8.65288079e-03 -1.73090640e-02 -2.75360723e-03
    2.09298842e-02 -5.68711339e-03 -5.86047675e-03 6.44519832e-03
    -4.95631760e-03 1.51975583e-02 -6.29120367e-03 -1.10846516e-02
    4.59316224e-02 1.06630558e-02 -6.79867482e-03 -1.50510324e-02
    -1.71421841e-02 -1.58654768e-02 2.30350681e-02 2.63433643e-02
    8.57520923e-02 2.27750726e-02 3.51532027e-02 1.98891703e-02
    1.59879159e-02 -2.88641229e-02 3.58655713e-02 3.24556008e-02
    2.54925452e-02 8.27830634e-04 6.39077229e-03 7.98251946e-03
    -2.61489879e-02 -1.69191230e-02 3.38738151e-02 3.24525945e-02
    2.53281891e-02 1.67554207e-02 1.04925781e-01 3.66259068e-02
    3.21387015e-02 -2.36699283e-02 -2.99523817e-03 -1.12665957e-03
    -5.83008956e-03 -5.83601650e-03 -5.46046440e-03 -2.83069648e-02
    1.32095413e-02 1.03622098e-02 2.67076455e-02 1.96430255e-02
    -1.70171112e-02 -5.30943554e-03 8.94711586e-04 -1.70009416e-02
    9.69574088e-04 2.80162301e-02 1.07747205e-02 -8.52188747e-03
    6.79019839e-03 -1.34148949e-03 -6.74178377e-02 -2.96814032e-02
    -1.46381967e-02 -2.65747812e-02 -5.51922098e-02 -4.55010682e-02
    -2.57209763e-02 5.85932611e-03 -4.10171114e-02 -4.42230329e-02
    -1.96703733e-03 -2.03927252e-02 -1.54749015e-02 4.48597111e-02
    5.93063515e-03 1.11112716e-02 4.88728955e-02 -2.94094998e-02
    -4.08670567e-02 -6.66194269e-03 -1.06439414e-02 -5.30479336e-03
    -2.36107800e-02 -2.39294861e-02 -8.80574156e-03 -5.96922962e-03
    -1.00113908e-02 -6.78482815e-04 1.22458413e-02 -3.78156058e-03
    -2.89963384e-04 1.82341337e-02 -4.83583612e-03 9.09550395e-03
    1.54074086e-02 1.17573319e-02 -6.03123233e-02 -5.15985023e-03
    -2.44212989e-02 -1.47544732e-02 -1.01820538e-02 -2.40808465e-02
    2.43585615e-04 3.10309716e-02 -2.95862723e-02 -2.94000152e-02
    7.37050455e-03 -4.83404435e-02 -2.81631835e-02 -2.14382391e-02
    -6.11647544e-03 -2.31196750e-02 3.53891142e-02 -4.83771693e-03
    8.13307520e-03 -2.91603943e-03 -2.24126074e-02 -2.08246484e-02
    5.43542847e-04 -2.32271496e-02 -4.68008779e-03 -1.47549780e-02
    -4.13858937e-03 1.51307713e-02 6.11307770e-02 4.63800952e-02
    5.77617204e-03 2.83231046e-02 2.99689900e-02 -2.21248697e-02
    1.37210563e-02 1.90091704e-03 -2.98899822e-02 2.71141231e-02
    6.69111032e-03 -1.95839051e-02 1.75877325e-02 -3.95485349e-02
    -6.70331120e-02 1.41037069e-02 -9.46823787e-03 2.69499188e-03
    1.65411700e-02 -2.24566134e-03 -2.11990066e-02 -2.06745602e-03
    1.70642659e-02 -3.98885831e-02 2.76482236e-02 2.98592988e-02
    -4.91247699e-02 4.01503406e-02 1.03966314e-02 -3.90659049e-02
    1.22947227e-02 9.80107021e-03 -1.90098807e-02 -2.46508811e-02
    -4.93596792e-02 1.32248169e-02 2.36456729e-02 1.61668530e-03
    1.15931202e-02 -6.47686981e-03 2.21760888e-02 2.56361943e-02
    3.73622403e-02 1.25849890e-02 -3.05167157e-02 2.75266245e-02
    -5.15282620e-04 -4.69469838e-02 -1.81477685e-02 1.11854011e-02
    -3.81794125e-02 1.87022369e-02 -2.68746689e-02 -1.24256853e-02
    2.64424812e-02 -3.89641598e-02 2.94748414e-03 -8.48819036e-03
    1.39251975e-02 -2.91940887e-02 2.99196150e-02 1.10449987e-02
    -4.26572748e-02 -1.08049335e-02 -2.12989189e-02 1.33694373e-02
    1.93410495e-03 6.15673093e-03 5.82256261e-03 3.23687308e-02
    -2.22364739e-02 -2.37901770e-02 2.85549113e-03 -1.14386575e-02
    -5.85220614e-03 2.04324145e-02 3.11271928e-04 7.04855844e-03
    4.26363945e-02 -7.21653132e-03 2.56488379e-03 4.28123474e-02
    -9.61987674e-03 -1.65929962e-02 7.50618568e-03 -2.81801037e-02
    -2.41013691e-02 4.17390689e-02 -7.92296976e-03 -1.31685203e-02
    3.91216464e-02 -1.40972510e-02 -1.28516620e-02 -1.14313522e-02
    -3.81449498e-02 -3.37810186e-03 5.03167324e-02 -1.28871202e-02
    -2.10651625e-02 1.65459253e-02 1.72880420e-03 1.33075733e-02
    8.77565704e-03 -1.93637479e-02 -2.59105046e-03 1.20043391e-02
    -1.50297452e-02 -7.43253995e-03 -8.41110572e-03 -9.79741197e-03
    2.70378608e-02 1.19472444e-02 2.82235276e-02 2.47800630e-02
    4.96279113e-02 -1.92978475e-02 2.40297504e-02 6.57126829e-02
    -8.12464487e-03 -1.08665787e-02 -3.87524404e-02 -2.82181781e-02
    -7.29926303e-03 2.41646618e-02 7.06106331e-03 2.79250387e-02
    7.24621639e-02 8.01911578e-04 -4.41526849e-04 -3.01827267e-02
    -7.75120640e-03 1.80247743e-02 2.20344905e-02 -1.79295370e-03
    3.34876077e-03 3.78171094e-02 7.03831669e-03 5.19860722e-03
    1.85850523e-02 2.06193402e-02 1.55677022e-02 2.04309691e-02
    -2.30137743e-02 -6.50786422e-03 3.94156389e-02 -7.04160845e-03
    1.24144563e-02 1.19213732e-02 -2.13534990e-03 2.35298998e-03
    3.81943844e-02 -1.88422054e-02 4.21640389e-02 7.59588704e-02
    1.41950708e-03 -8.26219737e-04 -3.13237845e-03 -1.75912082e-02
    -9.79611557e-03 1.06847910e-02 -1.70299802e-02 3.49601880e-02
    5.63152470e-02 -2.28250138e-02 -1.75465283e-03 -3.35915051e-02
    -3.33745149e-04 -3.63385268e-02 1.13667687e-03 4.26822994e-03
    -2.30718385e-02 3.19556482e-02 1.42022679e-02 6.59281341e-03
    1.63173415e-02 -1.39367469e-02 -2.84618139e-02 2.57510282e-02
    -3.21343448e-03 -1.91307068e-02 4.60743904e-02 4.79137991e-03
    -6.73333276e-03 2.20765639e-02 -3.78256775e-02 -9.06142127e-03
    5.76301962e-02 -3.21189240e-02 3.90000828e-02 8.07544217e-02
    1.61603503e-02 -1.56632420e-02 -2.45020743e-02 6.83999388e-03
    -1.74295437e-02 1.87218543e-02 2.84711365e-02 5.02535794e-03
    6.92112371e-02 7.30127469e-03 6.79415243e-04 2.46821484e-03
    -3.82548422e-02 -3.48784253e-02 -3.86363175e-03 -3.25658801e-03
    -4.79952898e-03 3.88683267e-02 2.92213745e-02 1.78397074e-02
    3.99847962e-02 -1.47711961e-02 4.59930766e-03 1.57008898e-02
    -1.62199829e-02 -6.71457592e-03 1.36035485e-02 -2.54377909e-03
    -1.32589629e-02 -1.03542302e-02 3.11186649e-02 1.08224908e-02
    1.37794952e-04 2.16955058e-02 3.79918665e-02 6.86156899e-02
    1.98781025e-02 3.18157971e-02 -4.35987227e-02 -2.65852977e-02
    -9.51828435e-03 1.55517384e-02 1.07578682e-02 5.64798191e-02
    4.22885902e-02 5.09835267e-03 2.76182592e-02 -5.93708232e-02
    1.61471833e-02 2.23263539e-02 8.09160713e-03 5.06560132e-02
    1.36223426e-02 2.27426477e-02 8.34899116e-03 8.12856108e-03
    2.55491249e-02 2.74019372e-02 2.69494057e-02 9.52664204e-03
    4.18341570e-02 -5.50178695e-04 3.86015475e-02 2.37047449e-02
    7.10856244e-02 2.64149699e-02 3.79879028e-02 -3.43153775e-02
    7.37237569e-04 -1.24567200e-03 6.85591698e-02 3.94921824e-02
    3.63201648e-02 1.90175753e-02 3.52466851e-03 4.44180965e-02
    3.36426385e-02 1.85122732e-02 7.17298314e-02 1.41422879e-02
    4.36978936e-02 4.35610376e-02 1.09643482e-01 -1.30417310e-02
    6.47152513e-02 -3.71775194e-03 2.10726652e-02 3.06365471e-02
    -9.12545979e-01</SVMDetector></HOGboats>
</opencv_storage>
